{"learner":{"attributes":{"best_iteration":"41","best_score":"0.7115919632903328","scikit_learn":"{\"_estimator_type\": \"classifier\"}"},"feature_names":[],"feature_types":[],"gradient_booster":{"model":{"cats":{"enc":[],"feature_segments":[],"sorted_idx":[]},"gbtree_model_param":{"num_parallel_tree":"1","num_trees":"62"},"iteration_indptr":[0,1,2,3,4,5,6,7,8,9,10,11,12,13,14,15,16,17,18,19,20,21,22,23,24,25,26,27,28,29,30,31,32,33,34,35,36,37,38,39,40,41,42,43,44,45,46,47,48,49,50,51,52,53,54,55,56,57,58,59,60,61,62],"tree_info":[0,0,0,0,0,0,0,0,0,0,0,0,0,0,0,0,0,0,0,0,0,0,0,0,0,0,0,0,0,0,0,0,0,0,0,0,0,0,0,0,0,0,0,0,0,0,0,0,0,0,0,0,0,0,0,0,0,0,0,0,0,0],"trees":[{"base_weights":[-3.5873274E-3,-2.6294538E-1,4.4291323E-1,-4.2670012E-1,3.308434E-1,2.5385278E-1,1.0339384E0,-4.9819704E-2,-1.584726E-2,8.808806E-3,4.297392E-2,6.2423325E-3,5.1479798E-2,5.5597465E-2,-1.37318075E-2],"categories":[],"categories_nodes":[],"categories_segments":[],"categories_sizes":[],"default_left":[0,0,0,0,0,0,0,0,0,0,0,0,0,0,0],"id":0,"left_children":[1,3,5,7,9,11,13,-1,-1,-1,-1,-1,-1,-1,-1],"loss_changes":[2.3787447E2,1.2658787E2,8.380492E1,6.3137833E1,2.2696854E1,5.7124348E1,1.9150192E1,0E0,0E0,0E0,0E0,0E0,0E0,0E0,0E0],"parents":[2147483647,0,0,1,1,2,2,3,3,4,4,5,5,6,6],"right_children":[2,4,6,8,10,12,14,-1,-1,-1,-1,-1,-1,-1,-1],"split_conditions":[7.203902E1,1E0,1E0,4.7694614E1,2E0,1.8358685E0,1.4711548E2,-4.9819704E-2,-1.584726E-2,8.808806E-3,4.297392E-2,6.2423325E-3,5.1479798E-2,5.5597465E-2,-1.37318075E-2],"split_indices":[0,12,12,0,16,3,6,0,0,0,0,0,0,0,0],"split_type":[0,0,0,0,0,0,0,0,0,0,0,0,0,0,0],"sum_hessian":[2.051268E3,1.2980895E3,7.531785E2,1.01795026E3,2.8013925E2,5.72392E2,1.8078651E2,1.6233026E2,8.5562E2,2.1842255E2,6.171669E1,4.923796E2,8.0012436E1,1.7090007E2,9.886436E0],"tree_param":{"num_deleted":"0","num_feature":"19","num_nodes":"15","size_leaf_vector":"1"}},{"base_weights":[-4.3367654E-2,-2.903397E-1,3.4597975E-1,-4.340117E-1,2.3507097E-1,1.9528878E-1,9.371685E-1,-5.394124E-2,-1.6012374E-2,-2.9208328E-4,3.3053543E-2,5.3961616E-4,4.1505933E-2,1.7694507E-2,5.4107964E-2],"categories":[],"categories_nodes":[],"categories_segments":[],"categories_sizes":[],"default_left":[0,0,0,0,0,0,0,0,0,0,0,0,0,0,0],"id":1,"left_children":[1,3,5,7,9,11,13,-1,-1,-1,-1,-1,-1,-1,-1],"loss_changes":[1.9528362E2,9.397902E1,6.982797E1,7.097592E1,2.7541382E1,7.370313E1,1.2776291E1,0E0,0E0,0E0,0E0,0E0,0E0,0E0,0E0],"parents":[2147483647,0,0,1,1,2,2,3,3,4,4,5,5,6,6],"right_children":[2,4,6,8,10,12,14,-1,-1,-1,-1,-1,-1,-1,-1],"split_conditions":[7.1E1,1E0,1.6422267E0,4.7030502E1,1.3298506E0,1E0,2E0,-5.394124E-2,-1.6012374E-2,-2.9208328E-4,3.3053543E-2,5.3961616E-4,4.1505933E-2,1.7694507E-2,5.4107964E-2],"split_indices":[0,12,3,0,3,12,9,0,0,0,0,0,0,0,0],"split_type":[0,0,0,0,0,0,0,0,0,0,0,0,0,0,0],"sum_hessian":[2.0278541E3,1.241182E3,7.866721E2,9.7501764E2,2.6616443E2,6.2860785E2,1.5806427E2,1.4418379E2,8.308338E2,1.7081139E2,9.535304E1,4.8836154E2,1.4024629E2,3.2633797E1,1.2543047E2],"tree_param":{"num_deleted":"0","num_feature":"19","num_nodes":"15","size_leaf_vector":"1"}},{"base_weights":[5.5707847E-3,-2.6311308E-1,4.197384E-1,-4.690707E-1,2.1800134E-1,2.6084358E-1,9.567525E-1,-2.9803196E-2,-4.8525955E-5,1.4161534E-2,-7.312438E-2,4.0671714E-3,3.4137495E-2,5.0213166E-2,-1.1003638E-2],"categories":[],"categories_nodes":[],"categories_segments":[],"categories_sizes":[],"default_left":[0,0,0,0,0,0,0,0,0,0,0,0,0,0,0],"id":2,"left_children":[1,3,5,7,9,11,13,-1,-1,-1,-1,-1,-1,-1,-1],"loss_changes":[2.3028766E2,1.24531265E2,6.899165E1,5.2215347E1,4.183636E1,4.759855E1,1.0766663E1,0E0,0E0,0E0,0E0,0E0,0E0,0E0,0E0],"parents":[2147483647,0,0,1,1,2,2,3,3,4,4,5,5,6,6],"right_children":[2,4,6,8,10,12,14,-1,-1,-1,-1,-1,-1,-1,-1],"split_conditions":[7.1E1,1E0,1E0,1E0,1.88857E2,1E0,1.5579346E1,-2.9803196E-2,-4.8525955E-5,1.4161534E-2,-7.312438E-2,4.0671714E-3,3.4137495E-2,5.0213166E-2,-1.1003638E-2],"split_indices":[0,11,12,12,5,11,7,0,0,0,0,0,0,0,0],"split_type":[0,0,0,0,0,0,0,0,0,0,0,0,0,0,0],"sum_hessian":[2.066311E3,1.2534581E3,8.1285297E2,8.778917E2,3.7556644E2,6.2912006E2,1.8373291E2,6.9005865E2,1.8783307E2,3.6279114E2,1.2775291E1,4.4276978E2,1.863503E2,1.7689618E2,6.836731E0],"tree_param":{"num_deleted":"0","num_feature":"19","num_nodes":"15","size_leaf_vector":"1"}},{"base_weights":[1.1421932E-3,-1.6478713E-1,5.781363E-1,-3.3183888E-1,2.8048778E-1,9.2379585E-2,7.338242E-1,-2.4882933E-2,3.3126727E-3,4.3123364E-3,3.6112748E-2,-1.1810815E-2,3.815463E-2,2.6849179E-2,5.8322072E-2],"categories":[],"categories_nodes":[],"categories_segments":[],"categories_sizes":[],"default_left":[0,0,0,0,0,0,0,0,0,0,0,0,0,0,0],"id":3,"left_children":[1,3,5,7,9,11,13,-1,-1,-1,-1,-1,-1,-1,-1],"loss_changes":[1.9806102E2,1.19622246E2,3.4761276E1,7.725188E1,3.7483295E1,2.5453617E1,2.8657104E1,0E0,0E0,0E0,0E0,0E0,0E0,0E0,0E0],"parents":[2147483647,0,0,1,1,2,2,3,3,4,4,5,5,6,6],"right_children":[2,4,6,8,10,12,14,-1,-1,-1,-1,-1,-1,-1,-1],"split_conditions":[1E0,7.597847E1,2E0,1E0,1E0,7.561388E1,1E0,-2.4882933E-2,3.3126727E-3,4.3123364E-3,3.6112748E-2,-1.1810815E-2,3.815463E-2,2.6849179E-2,5.8322072E-2],"split_indices":[12,0,9,11,11,0,11,0,0,0,0,0,0,0,0],"split_type":[0,0,0,0,0,0,0,0,0,0,0,0,0,0,0],"sum_hessian":[2.0653083E3,1.6047267E3,4.6058163E2,1.1673748E3,4.3735196E2,1.1252579E2,3.4805585E2,8.2401776E2,3.4335703E2,3.0518436E2,1.321676E2,7.6076836E1,3.644895E1,2.4168317E2,1.06372696E2],"tree_param":{"num_deleted":"0","num_feature":"19","num_nodes":"15","size_leaf_vector":"1"}},{"base_weights":[2.081056E-2,-1.13752335E-1,4.9356842E-1,-2.669369E-1,3.5971862E-1,2.3277892E-1,8.162255E-1,-2.7915934E-2,-2.3380152E-3,8.493998E-3,4.0912967E-2,-1.1219371E-2,3.0852363E-2,1.5753794E-2,5.551812E-2],"categories":[],"categories_nodes":[],"categories_segments":[],"categories_sizes":[],"default_left":[0,0,0,0,0,0,0,0,0,0,0,0,0,0,0],"id":4,"left_children":[1,3,5,7,9,11,13,-1,-1,-1,-1,-1,-1,-1,-1],"loss_changes":[1.3174599E2,1.170264E2,3.822287E1,7.808779E1,3.4028866E1,4.522656E1,2.9453873E1,0E0,0E0,0E0,0E0,0E0,0E0,0E0,0E0],"parents":[2147483647,0,0,1,1,2,2,3,3,4,4,5,5,6,6],"right_children":[2,4,6,8,10,12,14,-1,-1,-1,-1,-1,-1,-1,-1],"split_conditions":[1E0,1E0,6.8860596E1,6.3550644E1,4E0,3E0,1E0,-2.7915934E-2,-2.3380152E-3,8.493998E-3,4.0912967E-2,-1.1219371E-2,3.0852363E-2,1.5753794E-2,5.551812E-2],"split_indices":[12,13,0,0,9,9,16,0,0,0,0,0,0,0,0],"split_type":[0,0,0,0,0,0,0,0,0,0,0,0,0,0,0],"sum_hessian":[2.0675469E3,1.6101665E3,4.5738034E2,1.2172188E3,3.929477E2,2.5453943E2,2.028409E2,5.227084E2,6.945104E2,2.795048E2,1.1344289E2,1.1640983E2,1.3812961E2,7.629554E1,1.26545364E2],"tree_param":{"num_deleted":"0","num_feature":"19","num_nodes":"15","size_leaf_vector":"1"}},{"base_weights":[-1.0030057E-2,-1.5552922E-1,4.9878803E-1,-2.977268E-1,2.7817255E-1,2.2852309E-1,6.968204E-1,-2.4656689E-2,7.906625E-3,-2.8844992E-2,1.6130907E-2,3.465029E-2,-3.323589E-3,3.7477326E-2,-7.7446885E-3],"categories":[],"categories_nodes":[],"categories_segments":[],"categories_sizes":[],"default_left":[0,0,0,0,0,0,0,0,0,0,0,0,0,0,0],"id":5,"left_children":[1,3,5,7,9,11,13,-1,-1,-1,-1,-1,-1,-1,-1],"loss_changes":[1.5194098E2,9.857892E1,2.4092178E1,1.07323135E2,1.5256964E1,2.6908081E1,1.2018059E1,0E0,0E0,0E0,0E0,0E0,0E0,0E0,0E0],"parents":[2147483647,0,0,1,1,2,2,3,3,4,4,5,5,6,6],"right_children":[2,4,6,8,10,12,14,-1,-1,-1,-1,-1,-1,-1,-1],"split_conditions":[1E0,1E0,1E0,1E0,6.051071E-1,3.534952E0,1.533809E1,-2.4656689E-2,7.906625E-3,-2.8844992E-2,1.6130907E-2,3.465029E-2,-3.323589E-3,3.7477326E-2,-7.7446885E-3],"split_indices":[12,13,16,11,3,4,7,0,0,0,0,0,0,0,0],"split_type":[0,0,0,0,0,0,0,0,0,0,0,0,0,0,0],"sum_hessian":[2.0497441E3,1.5949095E3,4.5483456E2,1.2016318E3,3.9327765E2,1.9391911E2,2.6091547E2,8.411601E2,3.6047177E2,1.843296E1,3.7484467E2,7.466729E1,1.1925182E2,2.459849E2,1.4930559E1],"tree_param":{"num_deleted":"0","num_feature":"19","num_nodes":"15","size_leaf_vector":"1"}},{"base_weights":[-3.5287675E-2,-1.7074911E-1,4.3191552E-1,-3.0952826E-1,2.2222207E-1,4.902555E-1,-4.3805304E-1,-2.0634493E-2,1.994429E-3,3.529701E-2,4.690874E-3,3.4035195E-3,3.088033E-2,-3.7068773E-2,3.2431167E-2],"categories":[],"categories_nodes":[],"categories_segments":[],"categories_sizes":[],"default_left":[0,0,0,0,0,0,0,0,0,0,0,0,0,0,0],"id":6,"left_children":[1,3,5,7,9,11,13,-1,-1,-1,-1,-1,-1,-1,-1],"loss_changes":[1.2815074E2,8.5731186E1,2.3425133E1,4.191304E1,2.5312542E1,2.284291E1,1.038331E1,0E0,0E0,0E0,0E0,0E0,0E0,0E0,0E0],"parents":[2147483647,0,0,1,1,2,2,3,3,4,4,5,5,6,6],"right_children":[2,4,6,8,10,12,14,-1,-1,-1,-1,-1,-1,-1,-1],"split_conditions":[1E0,4E0,1.5530614E1,1E0,1.0536382E1,2E0,1.7173603E1,-2.0634493E-2,1.994429E-3,3.529701E-2,4.690874E-3,3.4035195E-3,3.088033E-2,-3.7068773E-2,3.2431167E-2],"split_indices":[12,9,7,13,7,9,7,0,0,0,0,0,0,0,0],"split_type":[0,0,0,0,0,0,0,0,0,0,0,0,0,0,0],"sum_hessian":[2.0220461E3,1.5684529E3,4.5359323E2,1.1595328E3,4.089201E2,4.2580823E2,2.7785E1,8.952379E2,2.6429492E2,8.42003E1,3.247198E2,9.93934E1,3.2641483E2,2.216639E1,5.6186113E0],"tree_param":{"num_deleted":"0","num_feature":"19","num_nodes":"15","size_leaf_vector":"1"}},{"base_weights":[1.1282622E-2,-1.4115904E-1,3.725308E-1,-2.9147923E-1,3.038633E-1,9.762562E-2,6.535987E-1,-1.666925E-2,4.763115E-2,5.724581E-3,3.912466E-2,6.921881E-3,-7.927229E-2,3.5870146E-2,-1.0577956E-2],"categories":[],"categories_nodes":[],"categories_segments":[],"categories_sizes":[],"default_left":[0,0,0,0,0,0,0,0,0,0,0,0,0,0,0],"id":7,"left_children":[1,3,5,7,9,11,13,-1,-1,-1,-1,-1,-1,-1,-1],"loss_changes":[1.14453995E2,9.787867E1,4.7489685E1,5.7407303E1,3.3267532E1,2.1737663E1,1.7089752E1,0E0,0E0,0E0,0E0,0E0,0E0,0E0,0E0],"parents":[2147483647,0,0,1,1,2,2,3,3,4,4,5,5,6,6],"right_children":[2,4,6,8,10,12,14,-1,-1,-1,-1,-1,-1,-1,-1],"split_conditions":[1E0,1E0,3E0,2.455727E0,4E0,2.6414017E2,4.5857115E0,-1.666925E-2,4.763115E-2,5.724581E-3,3.912466E-2,6.921881E-3,-7.927229E-2,3.5870146E-2,-1.0577956E-2],"split_indices":[11,13,9,3,9,6,4,0,0,0,0,0,0,0,0],"split_type":[0,0,0,0,0,0,0,0,0,0,0,0,0,0,0],"sum_hessian":[2.0750115E3,1.4596829E3,6.153287E2,1.0916771E3,3.680058E2,3.1227628E2,3.0305243E2,1.0572438E3,3.4433277E1,2.6516144E2,1.0284435E2,3.0628534E2,5.99093E0,2.8258398E2,2.046842E1],"tree_param":{"num_deleted":"0","num_feature":"19","num_nodes":"15","size_leaf_vector":"1"}},{"base_weights":[1.4065879E-3,-1.9815297E-1,3.1442752E-1,-3.2715854E-1,2.2357361E-1,-7.758905E-2,4.384646E-1,-3.9283726E-2,-1.154354E-2,7.7441655E-4,3.5112977E-2,-1.3592024E-2,2.833663E-2,1.5933152E-2,3.861178E-2],"categories":[],"categories_nodes":[],"categories_segments":[],"categories_sizes":[],"default_left":[0,0,0,0,0,0,0,0,0,0,0,0,0,0,0],"id":8,"left_children":[1,3,5,7,9,11,13,-1,-1,-1,-1,-1,-1,-1,-1],"loss_changes":[1.2869173E2,6.85508E1,3.9093544E1,4.218454E1,2.9330122E1,2.4469446E1,2.390548E1,0E0,0E0,0E0,0E0,0E0,0E0,0E0,0E0],"parents":[2147483647,0,0,1,1,2,2,3,3,4,4,5,5,6,6],"right_children":[2,4,6,8,10,12,14,-1,-1,-1,-1,-1,-1,-1,-1],"split_conditions":[7.1E1,1E0,2E0,4.7694614E1,4E0,2E0,1E0,-3.9283726E-2,-1.154354E-2,7.7441655E-4,3.5112977E-2,-1.3592024E-2,2.833663E-2,1.5933152E-2,3.861178E-2],"split_indices":[0,13,9,0,9,16,13,0,0,0,0,0,0,0,0],"split_type":[0,0,0,0,0,0,0,0,0,0,0,0,0,0,0],"sum_hessian":[2.0569956E3,1.2563002E3,8.006953E2,9.6245886E2,2.9384134E2,1.9239394E2,6.083014E2,1.6499335E2,7.974655E2,2.0603511E2,8.780624E1,1.4861234E2,4.3781605E1,4.5000958E2,1.5829181E2],"tree_param":{"num_deleted":"0","num_feature":"19","num_nodes":"15","size_leaf_vector":"1"}},{"base_weights":[1.2446761E-2,-1.6350862E-1,3.2286632E-1,-2.8323582E-1,2.7176648E-1,2.1100405E-1,7.142549E-1,-3.9135884E-2,-9.770581E-3,5.534721E-3,3.7111294E-2,2.342348E-2,1.140504E-3,3.991548E-2,-4.7318162E-3],"categories":[],"categories_nodes":[],"categories_segments":[],"categories_sizes":[],"default_left":[0,0,0,0,0,0,0,0,0,0,0,0,0,0,0],"id":9,"left_children":[1,3,5,7,9,11,13,-1,-1,-1,-1,-1,-1,-1,-1],"loss_changes":[1.1275146E2,6.876005E1,3.2380836E1,4.502825E1,2.1367748E1,2.8192339E1,1.1414955E1,0E0,0E0,0E0,0E0,0E0,0E0,0E0,0E0],"parents":[2147483647,0,0,1,1,2,2,3,3,4,4,5,5,6,6],"right_children":[2,4,6,8,10,12,14,-1,-1,-1,-1,-1,-1,-1,-1],"split_conditions":[7.214361E1,1E0,1E0,4.7030502E1,1E0,3.580901E0,1.2256003E2,-3.9135884E-2,-9.770581E-3,5.534721E-3,3.7111294E-2,2.342348E-2,1.140504E-3,3.991548E-2,-4.7318162E-3],"split_indices":[0,12,12,0,13,4,6,0,0,0,0,0,0,0,0],"split_type":[0,0,0,0,0,0,0,0,0,0,0,0,0,0,0],"sum_hessian":[2.0610476E3,1.3156719E3,7.453757E2,1.0324413E3,2.8323062E2,5.816883E2,1.636874E2,1.5244353E2,8.7999774E2,2.1253134E2,7.069927E1,2.4446872E2,3.3721957E2,1.4840897E2,1.5278433E1],"tree_param":{"num_deleted":"0","num_feature":"19","num_nodes":"15","size_leaf_vector":"1"}},{"base_weights":[1.1541799E-2,-1.8822107E-1,3.2532057E-1,-3.4266323E-1,1.828287E-1,2.1362922E-1,7.0002735E-1,-4.3333314E-2,-1.2317608E-2,1.512241E-3,3.3364035E-2,3.0680846E-3,2.8821079E-2,3.987087E-2,5.186401E-3],"categories":[],"categories_nodes":[],"categories_segments":[],"categories_sizes":[],"default_left":[0,0,0,0,0,0,0,0,0,0,0,0,0,0,0],"id":10,"left_children":[1,3,5,7,9,11,13,-1,-1,-1,-1,-1,-1,-1,-1],"loss_changes":[1.2772522E2,7.144269E1,3.2861343E1,4.3961884E1,2.7000908E1,3.374962E1,1.0307022E1,0E0,0E0,0E0,0E0,0E0,0E0,0E0,0E0],"parents":[2147483647,0,0,1,1,2,2,3,3,4,4,5,5,6,6],"right_children":[2,4,6,8,10,12,14,-1,-1,-1,-1,-1,-1,-1,-1],"split_conditions":[7.1E1,1E0,1E0,4.7694614E1,2E0,1E0,1.4643282E1,-4.3333314E-2,-1.2317608E-2,1.512241E-3,3.3364035E-2,3.0680846E-3,2.8821079E-2,3.987087E-2,5.186401E-3],"split_indices":[0,11,12,0,16,11,7,0,0,0,0,0,0,0,0],"split_type":[0,0,0,0,0,0,0,0,0,0,0,0,0,0,0],"sum_hessian":[2.0345068E3,1.2432749E3,7.91232E2,8.7814746E2,3.6512735E2,6.1156177E2,1.7967024E2,1.3431874E2,7.4382874E2,2.7904037E2,8.608699E1,4.3219473E2,1.7936703E2,1.5386653E2,2.5803724E1],"tree_param":{"num_deleted":"0","num_feature":"19","num_nodes":"15","size_leaf_vector":"1"}},{"base_weights":[-6.916431E-3,-2.225343E-1,2.271276E-1,-3.9135873E-1,6.761013E-2,1.1358694E-1,6.014809E-1,-2.5677055E-2,2.927372E-3,5.9633143E-3,-6.892789E-2,-3.7962495E-4,2.2442007E-2,5.80458E-2,2.3987092E-2],"categories":[],"categories_nodes":[],"categories_segments":[],"categories_sizes":[],"default_left":[0,0,0,0,0,0,0,0,0,0,0,0,0,0,0],"id":11,"left_children":[1,3,5,7,9,11,13,-1,-1,-1,-1,-1,-1,-1,-1],"loss_changes":[1.02058914E2,5.164398E1,4.1036953E1,3.670159E1,2.9130512E1,3.0355686E1,1.4329628E1,0E0,0E0,0E0,0E0,0E0,0E0,0E0,0E0],"parents":[2147483647,0,0,1,1,2,2,3,3,4,4,5,5,6,6],"right_children":[2,4,6,8,10,12,14,-1,-1,-1,-1,-1,-1,-1,-1],"split_conditions":[3E0,1E0,1E0,2E0,2.6414017E2,1E0,3.0748909E0,-2.5677055E-2,2.927372E-3,5.9633143E-3,-6.892789E-2,-3.7962495E-4,2.2442007E-2,5.80458E-2,2.3987092E-2],"split_indices":[9,10,12,16,6,13,4,0,0,0,0,0,0,0,0],"split_type":[0,0,0,0,0,0,0,0,0,0,0,0,0,0,0],"sum_hessian":[2.019414E3,1.0513433E3,9.680706E2,6.6451044E2,3.868329E2,7.4449036E2,2.2358026E2,5.225972E2,1.4191321E2,3.748876E2,1.1945293E1,5.4769147E2,1.9679889E2,3.7522984E1,1.8605728E2],"tree_param":{"num_deleted":"0","num_feature":"19","num_nodes":"15","size_leaf_vector":"1"}},{"base_weights":[-1.0131785E-2,-2.589548E-1,2.4572915E-1,-4.55345E-1,5.5988584E-2,1.3552326E-1,6.14793E-1,-3.667791E-2,-7.628321E-3,-3.7843795E-3,4.1274354E-2,-3.8741305E-3,1.8060522E-2,-4.8173E-3,3.337046E-2],"categories":[],"categories_nodes":[],"categories_segments":[],"categories_sizes":[],"default_left":[0,0,0,0,0,0,0,0,0,0,0,0,0,0,0],"id":12,"left_children":[1,3,5,7,9,11,13,-1,-1,-1,-1,-1,-1,-1,-1],"loss_changes":[1.298324E2,6.403572E1,4.068736E1,5.3423874E1,4.0525326E1,3.7386574E1,8.77919E0,0E0,0E0,0E0,0E0,0E0,0E0,0E0,0E0],"parents":[2147483647,0,0,1,1,2,2,3,3,4,4,5,5,6,6],"right_children":[2,4,6,8,10,12,14,-1,-1,-1,-1,-1,-1,-1,-1],"split_conditions":[6.7071175E1,1.2877487E0,1E0,3E0,5E0,3E0,1E0,-3.667791E-2,-7.628321E-3,-3.7843795E-3,4.1274354E-2,-3.8741305E-3,1.8060522E-2,-4.8173E-3,3.337046E-2],"split_indices":[0,3,12,9,9,9,9,0,0,0,0,0,0,0,0],"split_type":[0,0,0,0,0,0,0,0,0,0,0,0,0,0,0],"sum_hessian":[2.036315E3,1.0325448E3,1.0037701E3,6.3575433E2,3.9679047E2,7.747456E2,2.2902446E2,3.3003336E2,3.05721E2,3.3985684E2,5.6933613E1,3.988494E2,3.758962E2,1.5561007E1,2.1346346E2],"tree_param":{"num_deleted":"0","num_feature":"19","num_nodes":"15","size_leaf_vector":"1"}},{"base_weights":[-7.649596E-3,-9.0259746E-2,6.4319277E-1,-2.2649008E-1,2.3319978E-1,5.627451E-1,7.419159E-2,-1.3600344E-2,2.6782779E-2,2.880479E-3,3.499145E-2,4.985447E-2,2.0529168E-2],"categories":[],"categories_nodes":[],"categories_segments":[],"categories_sizes":[],"default_left":[0,0,0,0,0,0,0,0,0,0,0,0,0],"id":13,"left_children":[1,3,5,7,9,11,-1,-1,-1,-1,-1,-1,-1],"loss_changes":[1.0960005E2,7.98269E1,1.4068535E1,4.4402756E1,4.3851463E1,1.3259705E1,0E0,0E0,0E0,0E0,0E0,0E0,0E0],"parents":[2147483647,0,0,1,1,2,2,3,3,4,4,5,5],"right_children":[2,4,6,8,10,12,-1,-1,-1,-1,-1,-1,-1],"split_conditions":[1.8539141E0,1E0,3.1261716E0,3E0,4E0,1.0163803E1,7.419159E-2,-1.3600344E-2,2.6782779E-2,2.880479E-3,3.499145E-2,4.985447E-2,2.0529168E-2],"split_indices":[3,11,3,16,9,6,0,0,0,0,0,0,0],"split_type":[0,0,0,0,0,0,0,0,0,0,0,0,0],"sum_hessian":[2.0363657E3,1.8082888E3,2.2807693E2,1.2729315E3,5.3535736E2,2.1055069E2,1.7526245E1,1.202228E3,7.070348E1,3.9036462E2,1.4499272E2,5.2293346E1,1.5825734E2],"tree_param":{"num_deleted":"0","num_feature":"19","num_nodes":"13","size_leaf_vector":"1"}},{"base_weights":[8.111008E-3,-1.2894678E-1,3.3192343E-1,-2.1168144E-1,4.5809808E-1,1.6632335E-1,7.660571E-1,-1.7085155E-2,1.0763376E-2,-5.2031644E-2,2.6496818E-2,-2.806352E-2,1.275978E-2,4.492548E-2,-1.2788869E-2],"categories":[],"categories_nodes":[],"categories_segments":[],"categories_sizes":[],"default_left":[0,0,0,0,0,0,0,0,0,0,0,0,0,0,0],"id":14,"left_children":[1,3,5,7,9,11,13,-1,-1,-1,-1,-1,-1,-1,-1],"loss_changes":[9.1414505E1,7.038744E1,4.375865E1,7.057994E1,2.0052017E1,2.8994553E1,2.3224876E1,0E0,0E0,0E0,0E0,0E0,0E0,0E0,0E0],"parents":[2147483647,0,0,1,1,2,2,3,3,4,4,5,5,6,6],"right_children":[2,4,6,8,10,12,14,-1,-1,-1,-1,-1,-1,-1,-1],"split_conditions":[1E0,1.815881E0,4E0,1E0,4.367284E1,4.6373592E1,4.3880496E0,-1.7085155E-2,1.0763376E-2,-5.2031644E-2,2.6496818E-2,-2.806352E-2,1.275978E-2,4.492548E-2,-1.2788869E-2],"split_indices":[11,3,9,12,0,0,4,0,0,0,0,0,0,0,0],"split_type":[0,0,0,0,0,0,0,0,0,0,0,0,0,0,0],"sum_hessian":[2.056362E3,1.4452396E3,6.111225E2,1.267706E3,1.7753358E2,4.4404623E2,1.6707623E2,9.721763E2,2.9552975E2,7.1315045E0,1.7040208E2,4.7344032E1,3.967022E2,1.481514E2,1.8924837E1],"tree_param":{"num_deleted":"0","num_feature":"19","num_nodes":"15","size_leaf_vector":"1"}},{"base_weights":[1.49023915E-2,-1.1819723E-1,3.734242E-1,-2.914236E-1,1.734376E-1,6.943944E-2,5.66798E-1,-2.121448E-2,4.1875755E-3,-1.09841935E-2,1.5363559E-2,-6.760921E-3,4.0939968E-2,2.3993284E-2,6.204896E-2],"categories":[],"categories_nodes":[],"categories_segments":[],"categories_sizes":[],"default_left":[0,0,0,0,0,0,0,0,0,0,0,0,0,0,0],"id":15,"left_children":[1,3,5,7,9,11,13,-1,-1,-1,-1,-1,-1,-1,-1],"loss_changes":[9.759689E1,7.541382E1,3.242901E1,4.6755035E1,2.9381296E1,3.3546944E1,1.8747047E1,0E0,0E0,0E0,0E0,0E0,0E0,0E0,0E0],"parents":[2147483647,0,0,1,1,2,2,3,3,4,4,5,5,6,6],"right_children":[2,4,6,8,10,12,14,-1,-1,-1,-1,-1,-1,-1,-1],"split_conditions":[7.597847E1,1E0,1E0,4E0,2E0,1.6514285E0,1.9878069E0,-2.121448E-2,4.1875755E-3,-1.09841935E-2,1.5363559E-2,-6.760921E-3,4.0939968E-2,2.3993284E-2,6.204896E-2],"split_indices":[0,10,16,9,9,3,3,0,0,0,0,0,0,0,0],"split_type":[0,0,0,0,0,0,0,0,0,0,0,0,0,0,0],"sum_hessian":[2.0418146E3,1.4895516E3,5.522629E2,9.3469934E2,5.548523E2,2.1571436E2,3.365485E2,6.903029E2,2.4439642E2,1.4048465E2,4.1436765E2,1.7029965E2,4.5414696E1,3.0051462E2,3.6033882E1],"tree_param":{"num_deleted":"0","num_feature":"19","num_nodes":"15","size_leaf_vector":"1"}},{"base_weights":[1.4424227E-3,-1.227835E-1,2.957782E-1,-3.5411477E-1,8.2596906E-2,-4.594831E-1,3.760358E-1,-2.2443827E-2,1.5822412E-2,-9.877485E-4,2.1415174E-2,1.1096112E-2,-3.7249263E-2,3.8286548E-3,2.9054372E-2],"categories":[],"categories_nodes":[],"categories_segments":[],"categories_sizes":[],"default_left":[0,0,0,0,0,0,0,0,0,0,0,0,0,0,0],"id":16,"left_children":[1,3,5,7,9,11,13,-1,-1,-1,-1,-1,-1,-1,-1],"loss_changes":[7.438443E1,6.801232E1,3.6855152E1,4.2993286E1,2.6891489E1,1.1693151E1,3.3444855E1,0E0,0E0,0E0,0E0,0E0,0E0,0E0,0E0],"parents":[2147483647,0,0,1,1,2,2,3,3,4,4,5,5,6,6],"right_children":[2,4,6,8,10,12,14,-1,-1,-1,-1,-1,-1,-1,-1],"split_conditions":[1E0,6.568358E1,4.6373592E1,5E0,1E0,9.8756386E1,1E0,-2.2443827E-2,1.5822412E-2,-9.877485E-4,2.1415174E-2,1.1096112E-2,-3.7249263E-2,3.8286548E-3,2.9054372E-2],"split_indices":[11,0,0,9,12,5,16,0,0,0,0,0,0,0,0],"split_type":[0,0,0,0,0,0,0,0,0,0,0,0,0,0,0],"sum_hessian":[2.0308922E3,1.4285148E3,6.023775E2,6.71532E2,7.569828E2,5.706221E1,5.453153E2,5.8894867E2,8.2583275E1,5.8493005E2,1.7205273E2,1.6844172E1,4.0218037E1,2.2267E2,3.226453E2],"tree_param":{"num_deleted":"0","num_feature":"19","num_nodes":"15","size_leaf_vector":"1"}},{"base_weights":[-1.442826E-2,-9.534058E-2,4.9959594E-1,-2.516126E-1,1.6627851E-1,4.2973173E-1,7.015648E-2,-1.901575E-2,7.2097676E-3,2.7455573E-3,2.6162071E-2,9.006204E-3,2.8936822E-2],"categories":[],"categories_nodes":[],"categories_segments":[],"categories_sizes":[],"default_left":[0,0,0,0,0,0,0,0,0,0,0,0,0],"id":17,"left_children":[1,3,5,7,9,11,-1,-1,-1,-1,-1,-1,-1],"loss_changes":[8.342486E1,7.095674E1,1.6130707E1,5.5443207E1,2.5700884E1,9.268864E0,0E0,0E0,0E0,0E0,0E0,0E0,0E0],"parents":[2147483647,0,0,1,1,2,2,3,3,4,4,5,5],"right_children":[2,4,6,8,10,12,-1,-1,-1,-1,-1,-1,-1],"split_conditions":[1.7712983E0,1E0,3.1261716E0,1E0,1E0,1.2080022E1,7.015648E-2,-1.901575E-2,7.2097676E-3,2.7455573E-3,2.6162071E-2,9.006204E-3,2.8936822E-2],"split_indices":[3,10,3,13,12,7,0,0,0,0,0,0,0],"split_type":[0,0,0,0,0,0,0,0,0,0,0,0,0],"sum_hessian":[2.0035985E3,1.7323296E3,2.712689E2,1.0847933E3,6.4753625E2,2.5395625E2,1.731265E1,8.1884576E2,2.6594757E2,4.95087E2,1.5244923E2,9.642042E1,1.5753583E2],"tree_param":{"num_deleted":"0","num_feature":"19","num_nodes":"13","size_leaf_vector":"1"}},{"base_weights":[1.4909481E-2,-1.72016E-1,2.1531162E-1,-2.4373206E-1,3.2450083E-1,7.7892505E-2,5.3594005E-1,-1.7588168E-2,5.602275E-3,-4.1311285E-3,3.1159827E-2,-1.6265333E-3,2.189709E-2,3.029736E-2,-2.559268E-2],"categories":[],"categories_nodes":[],"categories_segments":[],"categories_sizes":[],"default_left":[0,0,0,0,0,0,0,0,0,0,0,0,0,0,0],"id":18,"left_children":[1,3,5,7,9,11,13,-1,-1,-1,-1,-1,-1,-1,-1],"loss_changes":[7.659287E1,3.777128E1,4.3359447E1,3.5642845E1,1.6420555E1,2.7605927E1,2.2158401E1,0E0,0E0,0E0,0E0,0E0,0E0,0E0,0E0],"parents":[2147483647,0,0,1,1,2,2,3,3,4,4,5,5,6,6],"right_children":[2,4,6,8,10,12,14,-1,-1,-1,-1,-1,-1,-1,-1],"split_conditions":[3E0,1.7891325E0,1E0,1E0,1.2315661E1,1E0,1.5195392E1,-1.7588168E-2,5.602275E-3,-4.1311285E-3,3.1159827E-2,-1.6265333E-3,2.189709E-2,3.029736E-2,-2.559268E-2],"split_indices":[9,3,11,13,7,12,7,0,0,0,0,0,0,0,0],"split_type":[0,0,0,0,0,0,0,0,0,0,0,0,0,0,0],"sum_hessian":[2.0415443E3,1.0561406E3,9.854037E2,9.236895E2,1.3245111E2,6.9129553E2,2.9410815E2,7.087705E2,2.1491902E2,5.6369526E1,7.608159E1,5.298753E2,1.6142023E2,2.7637073E2,1.773742E1],"tree_param":{"num_deleted":"0","num_feature":"19","num_nodes":"15","size_leaf_vector":"1"}},{"base_weights":[-4.088252E-3,-1.2038911E-1,4.0200385E-1,-7.5494736E-1,-5.4979354E-2,2.2996065E-1,6.4332825E-1,-2.1974197E-2,-6.695357E-2,-1.9621765E-2,3.0900694E-3,2.1571373E-3,3.357984E-2,1.191758E-2,3.8309548E-2],"categories":[],"categories_nodes":[],"categories_segments":[],"categories_sizes":[],"default_left":[0,0,0,0,0,0,0,0,0,0,0,0,0,0,0],"id":19,"left_children":[1,3,5,7,9,11,13,-1,-1,-1,-1,-1,-1,-1,-1],"loss_changes":[9.552727E1,6.514436E1,1.8384277E1,2.597676E1,5.633392E1,2.178466E1,8.896072E0,0E0,0E0,0E0,0E0,0E0,0E0,0E0,0E0],"parents":[2147483647,0,0,1,1,2,2,3,3,4,4,5,5,6,6],"right_children":[2,4,6,8,10,12,14,-1,-1,-1,-1,-1,-1,-1,-1],"split_conditions":[1E0,4.7030502E1,1E0,1.345592E2,2E0,1E0,2E0,-2.1974197E-2,-6.695357E-2,-1.9621765E-2,3.0900694E-3,2.1571373E-3,3.357984E-2,1.191758E-2,3.8309548E-2],"split_indices":[12,0,10,5,9,11,9,0,0,0,0,0,0,0,0],"split_type":[0,0,0,0,0,0,0,0,0,0,0,0,0,0,0],"sum_hessian":[2.0202052E3,1.5714568E3,4.4874847E2,1.4522707E2,1.4262297E3,2.6393185E2,1.8481662E2,9.611742E1,4.910964E1,3.659825E2,1.0602472E3,1.8679013E2,7.7141716E1,4.4234833E1,1.4058179E2],"tree_param":{"num_deleted":"0","num_feature":"19","num_nodes":"15","size_leaf_vector":"1"}},{"base_weights":[1.0222587E-2,-5.863802E-1,7.78796E-2,-8.942272E-1,-2.4212657E-1,-2.9549118E-2,4.0604034E-1,-1.8708592E-2,-5.627769E-2,2.2342699E-2,-2.7326716E-2,-6.5924376E-3,1.5991732E-2,1.2057886E-2,3.4996085E-2],"categories":[],"categories_nodes":[],"categories_segments":[],"categories_sizes":[],"default_left":[0,0,0,0,0,0,0,0,0,0,0,0,0,0,0],"id":20,"left_children":[1,3,5,7,9,11,13,-1,-1,-1,-1,-1,-1,-1,-1],"loss_changes":[8.176472E1,2.1424896E1,6.423279E1,1.223494E1,2.1265959E1,4.9104668E1,2.1423973E1,0E0,0E0,0E0,0E0,0E0,0E0,0E0,0E0],"parents":[2147483647,0,0,1,1,2,2,3,3,4,4,5,5,6,6],"right_children":[2,4,6,8,10,12,14,-1,-1,-1,-1,-1,-1,-1,-1],"split_conditions":[4.7694614E1,3E0,1E0,3.70019E1,9.384854E1,1E0,1E0,-1.8708592E-2,-5.627769E-2,2.2342699E-2,-2.7326716E-2,-6.5924376E-3,1.5991732E-2,1.2057886E-2,3.4996085E-2],"split_indices":[0,9,13,0,5,12,10,0,0,0,0,0,0,0,0],"split_type":[0,0,0,0,0,0,0,0,0,0,0,0,0,0,0],"sum_hessian":[2.0237289E3,2.0480145E2,1.8189275E3,1.06699295E2,9.810215E1,1.3711271E3,4.4780038E2,3.4191174E1,7.2508125E1,2.9746058E1,6.8356094E1,1.0615308E3,3.0959625E2,2.888255E2,1.5897487E2],"tree_param":{"num_deleted":"0","num_feature":"19","num_nodes":"15","size_leaf_vector":"1"}},{"base_weights":[1.9758228E-2,-1.0186139E-1,3.1226796E-1,-1.7216441E-1,3.8380697E-1,1.7494002E-1,7.511339E-1,-1.4373667E-2,1.0291843E-2,-5.6851815E-2,2.310345E-2,1.5296111E-3,2.798436E-2,4.5969095E-2,2.0132583E-2],"categories":[],"categories_nodes":[],"categories_segments":[],"categories_sizes":[],"default_left":[0,0,0,0,0,0,0,0,0,0,0,0,0,0,0],"id":21,"left_children":[1,3,5,7,9,11,13,-1,-1,-1,-1,-1,-1,-1,-1],"loss_changes":[7.178675E1,4.8726906E1,3.542853E1,5.440033E1,2.219901E1,2.5103174E1,7.5573425E0,0E0,0E0,0E0,0E0,0E0,0E0,0E0,0E0],"parents":[2147483647,0,0,1,1,2,2,3,3,4,4,5,5,6,6],"right_children":[2,4,6,8,10,12,14,-1,-1,-1,-1,-1,-1,-1,-1],"split_conditions":[1E0,1.8008555E0,2E0,1E0,1E0,4E0,9.873877E0,-1.4373667E-2,1.0291843E-2,-5.6851815E-2,2.310345E-2,1.5296111E-3,2.798436E-2,4.5969095E-2,2.0132583E-2],"split_indices":[11,3,16,12,9,9,2,0,0,0,0,0,0,0,0],"split_type":[0,0,0,0,0,0,0,0,0,0,0,0,0,0,0],"sum_hessian":[2.0144706E3,1.4233191E3,5.911514E2,1.244365E3,1.7895413E2,4.5203003E2,1.391214E2,9.539786E2,2.903864E2,7.7025266E0,1.712516E2,3.300736E2,1.2195643E2,9.1972534E1,4.7148865E1],"tree_param":{"num_deleted":"0","num_feature":"19","num_nodes":"15","size_leaf_vector":"1"}},{"base_weights":[-2.0401943E-3,-1.13610506E-1,3.1009063E-1,-2.7792445E-1,1.5780856E-1,1.05548166E-1,5.270703E-1,-2.094832E-2,4.7680847E-3,6.3466554E-4,2.4184119E-2,4.9382918E-2,3.0713684E-3,3.0810192E-2,-1.9266935E-3],"categories":[],"categories_nodes":[],"categories_segments":[],"categories_sizes":[],"default_left":[0,0,0,0,0,0,0,0,0,0,0,0,0,0,0],"id":22,"left_children":[1,3,5,7,9,11,13,-1,-1,-1,-1,-1,-1,-1,-1],"loss_changes":[6.981328E1,6.596941E1,2.3278008E1,4.8586533E1,2.632259E1,1.0460258E1,1.2974358E1,0E0,0E0,0E0,0E0,0E0,0E0,0E0,0E0],"parents":[2147483647,0,0,1,1,2,2,3,3,4,4,5,5,6,6],"right_children":[2,4,6,8,10,12,14,-1,-1,-1,-1,-1,-1,-1,-1],"split_conditions":[7.634847E1,1E0,3E0,4E0,1E0,2.7877862E0,4.323178E0,-2.094832E-2,4.7680847E-3,6.3466554E-4,2.4184119E-2,4.9382918E-2,3.0713684E-3,3.0810192E-2,-1.9266935E-3],"split_indices":[0,10,9,9,11,4,4,0,0,0,0,0,0,0,0],"split_type":[0,0,0,0,0,0,0,0,0,0,0,0,0,0,0],"sum_hessian":[2.0022621E3,1.475959E3,5.263031E2,9.1958527E2,5.5637366E2,2.7230093E2,2.540022E2,6.6747253E2,2.5211272E2,3.862414E2,1.701323E2,1.1334998E1,2.609659E2,2.1946008E2,3.4542114E1],"tree_param":{"num_deleted":"0","num_feature":"19","num_nodes":"15","size_leaf_vector":"1"}},{"base_weights":[8.875925E-3,-1.7283745E-1,1.9996211E-1,-3.267014E-1,1.6898507E-1,9.6657135E-2,5.4197437E-1,-1.9562421E-2,3.8563143E-2,-2.6124957E-4,3.3445522E-2,7.461363E-4,2.9222047E-2,1.4181698E-2,3.537974E-2],"categories":[],"categories_nodes":[],"categories_segments":[],"categories_sizes":[],"default_left":[0,0,0,0,0,0,0,0,0,0,0,0,0,0,0],"id":23,"left_children":[1,3,5,7,9,11,13,-1,-1,-1,-1,-1,-1,-1,-1],"loss_changes":[7.0498055E1,5.481784E1,3.4829697E1,5.1311584E1,2.8266327E1,3.0317171E1,9.400948E0,0E0,0E0,0E0,0E0,0E0,0E0,0E0,0E0],"parents":[2147483647,0,0,1,1,2,2,3,3,4,4,5,5,6,6],"right_children":[2,4,6,8,10,12,14,-1,-1,-1,-1,-1,-1,-1,-1],"split_conditions":[6.7071175E1,1E0,1E0,6E0,2E0,1.7263333E0,1E0,-1.9562421E-2,3.8563143E-2,-2.6124957E-4,3.3445522E-2,7.461363E-4,2.9222047E-2,1.4181698E-2,3.537974E-2],"split_indices":[0,11,12,9,16,3,16,0,0,0,0,0,0,0,0],"split_type":[0,0,0,0,0,0,0,0,0,0,0,0,0,0,0],"sum_hessian":[2.0272323E3,1.0389054E3,9.8832697E2,7.166706E2,3.2223474E2,7.607565E2,2.2757054E2,6.778763E2,3.8794342E1,2.3991527E2,8.231949E1,6.530761E2,1.0768034E2,9.072587E1,1.3684468E2],"tree_param":{"num_deleted":"0","num_feature":"19","num_nodes":"15","size_leaf_vector":"1"}},{"base_weights":[-6.3028424E-3,-9.343892E-2,3.076274E-1,-1.6418102E-1,3.8423094E-1,3.6252636E-1,-6.705317E-1,1.8896934E-2,-1.1838118E-2,2.4901254E-2,-2.1350947E-3,5.007043E-2,1.4745965E-2,-7.318041E-2,4.265982E-3],"categories":[],"categories_nodes":[],"categories_segments":[],"categories_sizes":[],"default_left":[0,0,0,0,0,0,0,0,0,0,0,0,0,0,0],"id":24,"left_children":[1,3,5,7,9,11,13,-1,-1,-1,-1,-1,-1,-1,-1],"loss_changes":[5.48083E1,5.309431E1,2.3705967E1,5.3944656E1,9.923668E0,1.7273708E1,1.4447522E1,0E0,0E0,0E0,0E0,0E0,0E0,0E0,0E0],"parents":[2147483647,0,0,1,1,2,2,3,3,4,4,5,5,6,6],"right_children":[2,4,6,8,10,12,14,-1,-1,-1,-1,-1,-1,-1,-1],"split_conditions":[1E0,1.8008555E0,1.5579346E1,9.853063E0,5.6052013E1,2.8503585E0,1E0,1.8896934E-2,-1.1838118E-2,2.4901254E-2,-2.1350947E-3,5.007043E-2,1.4745965E-2,-7.318041E-2,4.265982E-3],"split_indices":[12,3,7,7,6,4,10,0,0,0,0,0,0,0,0],"split_type":[0,0,0,0,0,0,0,0,0,0,0,0,0,0,0],"sum_hessian":[2.0013257E3,1.5675896E3,4.3373608E2,1.3664191E3,2.0117058E2,4.1167712E2,2.2058979E1,1.6043321E2,1.2059858E3,1.5882265E2,4.2347935E1,3.7271034E1,3.7440607E2,1.014358E1,1.19154E1],"tree_param":{"num_deleted":"0","num_feature":"19","num_nodes":"15","size_leaf_vector":"1"}},{"base_weights":[2.1233179E-2,-6.4910896E-2,3.2708532E-1,-1.4251894E-1,2.9908732E-1,2.1568333E-1,6.811648E-1,-1.3378064E-2,3.6044929E-3,-3.0106649E-2,1.9826157E-2,3.5260238E-3,2.7260078E-2,-8.8379375E-4,4.309651E-2],"categories":[],"categories_nodes":[],"categories_segments":[],"categories_sizes":[],"default_left":[0,0,0,0,0,0,0,0,0,0,0,0,0,0,0],"id":25,"left_children":[1,3,5,7,9,11,13,-1,-1,-1,-1,-1,-1,-1,-1],"loss_changes":[5.326926E1,4.4590958E1,1.7216461E1,3.495881E1,2.4692966E1,1.616325E1,1.3425743E1,0E0,0E0,0E0,0E0,0E0,0E0,0E0,0E0],"parents":[2147483647,0,0,1,1,2,2,3,3,4,4,5,5,6,6],"right_children":[2,4,6,8,10,12,14,-1,-1,-1,-1,-1,-1,-1,-1],"split_conditions":[1E0,1E0,1E0,1E0,5.715717E0,1E0,2E0,-1.3378064E-2,3.6044929E-3,-3.0106649E-2,1.9826157E-2,3.5260238E-3,2.7260078E-2,-8.8379375E-4,4.309651E-2],"split_indices":[12,18,13,10,2,11,9,0,0,0,0,0,0,0,0],"split_type":[0,0,0,0,0,0,0,0,0,0,0,0,0,0,0],"sum_hessian":[2.0181034E3,1.5752771E3,4.4282632E2,1.2994161E3,2.7586102E2,3.388972E2,1.0392913E2,8.210975E2,4.7831866E2,2.6056717E1,2.498043E2,2.3673338E2,1.021638E2,2.1522614E1,8.240652E1],"tree_param":{"num_deleted":"0","num_feature":"19","num_nodes":"15","size_leaf_vector":"1"}},{"base_weights":[6.4095185E-4,-1.4378886E-1,2.1541944E-1,-2.3682843E-1,1.9405276E-1,-5.7402975E-3,3.715293E-1,-1.4961849E-2,1.0505241E-2,1.4409757E-2,-4.830065E-2,4.1143214E-3,-3.237948E-2,2.5626052E-2,2.2445994E-3],"categories":[],"categories_nodes":[],"categories_segments":[],"categories_sizes":[],"default_left":[0,0,0,0,0,0,0,0,0,0,0,0,0,0,0],"id":26,"left_children":[1,3,5,7,9,11,13,-1,-1,-1,-1,-1,-1,-1,-1],"loss_changes":[6.214963E1,3.7714687E1,2.7858475E1,2.6318096E1,2.865445E1,1.904259E1,2.1675758E1,0E0,0E0,0E0,0E0,0E0,0E0,0E0,0E0],"parents":[2147483647,0,0,1,1,2,2,3,3,4,4,5,5,6,6],"right_children":[2,4,6,8,10,12,14,-1,-1,-1,-1,-1,-1,-1,-1],"split_conditions":[7.0196724E1,2E0,1E0,1.815881E0,1.7317206E2,1.4828152E1,4.0483913E0,-1.4961849E-2,1.0505241E-2,1.4409757E-2,-4.830065E-2,4.1143214E-3,-3.237948E-2,2.5626052E-2,2.2445994E-3],"split_indices":[0,16,16,3,5,7,4,0,0,0,0,0,0,0,0],"split_type":[0,0,0,0,0,0,0,0,0,0,0,0,0,0,0],"sum_hessian":[2.0002784E3,1.1960282E3,8.0425024E2,9.383553E2,2.5767297E2,3.3312238E2,4.7112787E2,8.240119E2,1.1434336E2,2.394542E2,1.8218779E1,2.939591E2,3.9163265E1,3.2827115E2,1.4285672E2],"tree_param":{"num_deleted":"0","num_feature":"19","num_nodes":"15","size_leaf_vector":"1"}},{"base_weights":[2.2986328E-2,-8.962625E-2,3.2193124E-1,-1.8316126E-1,2.1013208E-1,1.0182182E-1,4.6218932E-1,-1.6470965E-2,4.602002E-3,2.6859525E-3,2.831894E-2,-2.412643E-3,3.94265E-2,1.6568298E-2,4.4715356E-2],"categories":[],"categories_nodes":[],"categories_segments":[],"categories_sizes":[],"default_left":[0,0,0,0,0,0,0,0,0,0,0,0,0,0,0],"id":27,"left_children":[1,3,5,7,9,11,13,-1,-1,-1,-1,-1,-1,-1,-1],"loss_changes":[6.909932E1,4.184333E1,1.721268E1,4.5834644E1,1.966818E1,2.2886673E1,1.878672E1,0E0,0E0,0E0,0E0,0E0,0E0,0E0,0E0],"parents":[2147483647,0,0,1,1,2,2,3,3,4,4,5,5,6,6],"right_children":[2,4,6,8,10,12,14,-1,-1,-1,-1,-1,-1,-1,-1],"split_conditions":[7.597847E1,1E0,1E0,1.3162359E0,4E0,1.6514285E0,1E0,-1.6470965E-2,4.602002E-3,2.6859525E-3,2.831894E-2,-2.412643E-3,3.94265E-2,1.6568298E-2,4.4715356E-2],"split_indices":[0,13,16,3,9,3,12,0,0,0,0,0,0,0,0],"split_type":[0,0,0,0,0,0,0,0,0,0,0,0,0,0,0],"sum_hessian":[2.0490833E3,1.488922E3,5.6016125E2,1.135518E3,3.53404E2,2.193046E2,3.4085666E2,7.4150616E2,3.9401178E2,2.4697464E2,1.0642934E2,1.8099791E2,3.8306694E1,2.6385608E2,7.700057E1],"tree_param":{"num_deleted":"0","num_feature":"19","num_nodes":"15","size_leaf_vector":"1"}},{"base_weights":[8.023584E-3,-1.4426893E-1,1.7393054E-1,-2.3389882E-1,1.7701152E-1,2.0101646E-1,-1.1352472E0,-1.4092232E-2,2.0192338E-2,1.781788E-2,-1.2522868E-2,4.420304E-3,2.2842718E-2,-8.405944E-2,-9.482291E-3],"categories":[],"categories_nodes":[],"categories_segments":[],"categories_sizes":[],"default_left":[0,0,0,0,0,0,0,0,0,0,0,0,0,0,0],"id":28,"left_children":[1,3,5,7,9,11,13,-1,-1,-1,-1,-1,-1,-1,-1],"loss_changes":[5.09633E1,3.0342464E1,3.448914E1,2.5320675E1,1.77723E1,2.7178661E1,9.516687E0,0E0,0E0,0E0,0E0,0E0,0E0,0E0,0E0],"parents":[2147483647,0,0,1,1,2,2,3,3,4,4,5,5,6,6],"right_children":[2,4,6,8,10,12,14,-1,-1,-1,-1,-1,-1,-1,-1],"split_conditions":[3E0,1E0,4.940234E0,2.0788891E0,1.3315393E1,1E0,1.0261018E1,-1.4092232E-2,2.0192338E-2,1.781788E-2,-1.2522868E-2,4.420304E-3,2.2842718E-2,-8.405944E-2,-9.482291E-3],"split_indices":[9,12,8,3,7,11,2,0,0,0,0,0,0,0,0],"split_type":[0,0,0,0,0,0,0,0,0,0,0,0,0,0,0],"sum_hessian":[2.0139324E3,1.0498378E3,9.6409454E2,8.214041E2,2.284337E2,9.458712E2,1.8223309E1,7.648932E2,5.6510937E1,1.6125998E2,6.717372E1,6.5845355E2,2.8741766E2,1.0746326E1,7.476982E0],"tree_param":{"num_deleted":"0","num_feature":"19","num_nodes":"15","size_leaf_vector":"1"}},{"base_weights":[-2.3335435E-3,-1.1536209E-1,3.0877817E-1,-2.0211759E-1,1.6455282E-1,3.6289084E-1,-2.2539963E-1,-1.5906584E-2,2.9551627E-3,3.897008E-2,3.1117687E-3,2.8049886E-2,9.432255E-3,-4.5894455E-2,2.9421614E-3],"categories":[],"categories_nodes":[],"categories_segments":[],"categories_sizes":[],"default_left":[0,0,0,0,0,0,0,0,0,0,0,0,0,0,0],"id":29,"left_children":[1,3,5,7,9,11,13,-1,-1,-1,-1,-1,-1,-1,-1],"loss_changes":[7.0434235E1,3.5747337E1,1.5563137E1,3.4087326E1,2.1755932E1,1.6519978E1,9.978278E0,0E0,0E0,0E0,0E0,0E0,0E0,0E0,0E0],"parents":[2147483647,0,0,1,1,2,2,3,3,4,4,5,5,6,6],"right_children":[2,4,6,8,10,12,14,-1,-1,-1,-1,-1,-1,-1,-1],"split_conditions":[7.634847E1,1E0,1.3504901E2,1E0,1.0018856E1,3.6881878E0,1.75519E2,-1.5906584E-2,2.9551627E-3,3.897008E-2,3.1117687E-3,2.8049886E-2,9.432255E-3,-4.5894455E-2,2.9421614E-3],"split_indices":[0,13,6,11,7,4,6,0,0,0,0,0,0,0,0],"split_type":[0,0,0,0,0,0,0,0,0,0,0,0,0,0,0],"sum_hessian":[2.0005231E3,1.4683345E3,5.3218854E2,1.1215125E3,3.4682208E2,4.8384302E2,4.834554E1,7.7664355E2,3.4486887E2,4.7925198E1,2.9889688E2,2.245921E2,2.5925092E2,1.3198502E1,3.5147038E1],"tree_param":{"num_deleted":"0","num_feature":"19","num_nodes":"15","size_leaf_vector":"1"}},{"base_weights":[-1.7220281E-2,-9.246495E-2,3.31067E-1,-1.8380047E-1,1.9479321E-1,-1.1895939E-1,4.9685487E-1,-1.25537235E-2,1.5378802E-2,5.9900014E-3,4.0842537E-2,-5.9532184E-2,1.109666E-2,3.460394E-2,-2.6851825E-3],"categories":[],"categories_nodes":[],"categories_segments":[],"categories_sizes":[],"default_left":[0,0,0,0,0,0,0,0,0,0,0,0,0,0,0],"id":30,"left_children":[1,3,5,7,9,11,13,-1,-1,-1,-1,-1,-1,-1,-1],"loss_changes":[5.280869E1,4.3547993E1,2.6832005E1,4.1725132E1,1.8438541E1,3.6080574E1,2.8283028E1,0E0,0E0,0E0,0E0,0E0,0E0,0E0,0E0],"parents":[2147483647,0,0,1,1,2,2,3,3,4,4,5,5,6,6],"right_children":[2,4,6,8,10,12,14,-1,-1,-1,-1,-1,-1,-1,-1],"split_conditions":[1E0,1E0,9.338149E-1,1.815881E0,8.678701E1,5.9615623E1,4.1206927E0,-1.25537235E-2,1.5378802E-2,5.9900014E-3,4.0842537E-2,-5.9532184E-2,1.109666E-2,3.460394E-2,-2.6851825E-3],"split_indices":[18,13,3,3,0,0,4,0,0,0,0,0,0,0,0],"split_type":[0,0,0,0,0,0,0,0,0,0,0,0,0,0,0],"sum_hessian":[2.0127369E3,1.6562963E3,3.5644064E2,1.2573898E3,3.9890652E2,9.591168E1,2.6052896E2,1.1067961E3,1.5059357E2,3.5772946E2,4.1177044E1,2.2314507E1,7.3597176E1,1.921796E2,6.834936E1],"tree_param":{"num_deleted":"0","num_feature":"19","num_nodes":"15","size_leaf_vector":"1"}},{"base_weights":[3.0721711E-2,-6.679158E-2,3.3624455E-1,-1.9597805E-1,2.2595575E-1,9.210352E-1,2.6581275E-1,-1.4032984E-2,2.0116732E-2,-3.0663282E-2,1.6064255E-2,6.611285E-2,3.331236E-2,1.0694269E-2,4.8493624E-2],"categories":[],"categories_nodes":[],"categories_segments":[],"categories_sizes":[],"default_left":[0,0,0,0,0,0,0,0,0,0,0,0,0,0,0],"id":31,"left_children":[1,3,5,7,9,11,13,-1,-1,-1,-1,-1,-1,-1,-1],"loss_changes":[6.0752205E1,5.8503746E1,1.9835186E1,5.4531033E1,3.815422E1,3.8234482E0,1.5752012E1,0E0,0E0,0E0,0E0,0E0,0E0,0E0,0E0],"parents":[2147483647,0,0,1,1,2,2,3,3,4,4,5,5,6,6],"right_children":[2,4,6,8,10,12,14,-1,-1,-1,-1,-1,-1,-1,-1],"split_conditions":[1E0,1E0,2.9463763E0,1.8008555E0,4.6373592E1,1.1718895E1,3E0,-1.4032984E-2,2.0116732E-2,-3.0663282E-2,1.6064255E-2,6.611285E-2,3.331236E-2,1.0694269E-2,4.8493624E-2],"split_indices":[13,11,4,3,0,7,16,0,0,0,0,0,0,0,0],"split_type":[0,0,0,0,0,0,0,0,0,0,0,0,0,0,0],"sum_hessian":[2.03564E3,1.5437639E3,4.9187613E2,1.0716798E3,4.7208414E2,5.0773323E1,4.411028E2,9.396507E2,1.3202907E2,4.721686E1,4.2486728E2,1.7126617E1,3.3646706E1,4.127579E2,2.834492E1],"tree_param":{"num_deleted":"0","num_feature":"19","num_nodes":"15","size_leaf_vector":"1"}},{"base_weights":[1.1571554E-2,-1.7979409E-1,1.4657636E-1,-2.5170228E-1,3.2269266E-1,4.2739683E-3,3.082678E-1,-1.5348854E-2,2.6113287E-2,-2.4812294E-2,2.3295285E-2,-2.6059067E-3,3.437756E-2,1.1049989E-2,3.385147E-2],"categories":[],"categories_nodes":[],"categories_segments":[],"categories_sizes":[],"default_left":[0,0,0,0,0,0,0,0,0,0,0,0,0,0,0],"id":32,"left_children":[1,3,5,7,9,11,13,-1,-1,-1,-1,-1,-1,-1,-1],"loss_changes":[5.1661148E1,2.999474E1,2.6951523E1,3.1211102E1,1.254214E1,2.4224274E1,1.7341694E1,0E0,0E0,0E0,0E0,0E0,0E0,0E0,0E0],"parents":[2147483647,0,0,1,1,2,2,3,3,4,4,5,5,6,6],"right_children":[2,4,6,8,10,12,14,-1,-1,-1,-1,-1,-1,-1,-1],"split_conditions":[6.3550644E1,5E0,3E0,4.7432756E0,7.591171E-1,2.0788891E0,8.560488E1,-1.5348854E-2,2.6113287E-2,-2.4812294E-2,2.3295285E-2,-2.6059067E-3,3.437756E-2,1.1049989E-2,3.385147E-2],"split_indices":[0,9,9,4,3,3,0,0,0,0,0,0,0,0,0],"split_type":[0,0,0,0,0,0,0,0,0,0,0,0,0,0,0],"sum_hessian":[1.9967341E3,8.25447E2,1.1712871E3,7.229388E2,1.02508255E2,6.241444E2,5.471427E2,6.757152E2,4.7223557E1,1.4603696E1,8.7904564E1,5.7770465E2,4.6439774E1,4.4459793E2,1.0254473E2],"tree_param":{"num_deleted":"0","num_feature":"19","num_nodes":"15","size_leaf_vector":"1"}},{"base_weights":[-5.260591E-3,-5.8637404E-1,4.9579978E-2,-3.5389373E-1,-1.0142202E0,-3.7429914E-2,3.612333E-1,-2.5703324E-2,4.2753454E-2,-6.422139E-2,-1.9388208E-2,-7.268075E-3,1.0590329E-2,4.3078344E-2,1.2831806E-2],"categories":[],"categories_nodes":[],"categories_segments":[],"categories_sizes":[],"default_left":[0,0,0,0,0,0,0,0,0,0,0,0,0,0,0],"id":33,"left_children":[1,3,5,7,9,11,13,-1,-1,-1,-1,-1,-1,-1,-1],"loss_changes":[6.374907E1,1.6483665E1,4.957657E1,2.2745087E1,9.204861E0,3.847546E1,2.043713E1,0E0,0E0,0E0,0E0,0E0,0E0,0E0,0E0],"parents":[2147483647,0,0,1,1,2,2,3,3,4,4,5,5,6,6],"right_children":[2,4,6,8,10,12,14,-1,-1,-1,-1,-1,-1,-1,-1],"split_conditions":[4.6373592E1,1.345592E2,1E0,1.3005032E2,6.660127E1,7.597847E1,3.1034977E0,-2.5703324E-2,4.2753454E-2,-6.422139E-2,-1.9388208E-2,-7.268075E-3,1.0590329E-2,4.3078344E-2,1.2831806E-2],"split_indices":[0,5,12,5,6,0,4,0,0,0,0,0,0,0,0],"split_type":[0,0,0,0,0,0,0,0,0,0,0,0,0,0,0],"sum_hessian":[1.9958203E3,1.710102E2,1.82481E3,1.12730095E2,5.8280094E1,1.4273187E3,3.974914E2,1.0037636E2,1.2353739E1,3.95053E1,1.8774796E1,9.9671765E2,4.306011E2,6.6687004E1,3.3080438E2],"tree_param":{"num_deleted":"0","num_feature":"19","num_nodes":"15","size_leaf_vector":"1"}},{"base_weights":[5.090735E-3,-5.601545E-2,4.7996646E-1,-5.842925E-1,1.11811E-3,4.1353932E-1,6.236663E-2,-3.5515282E-2,-4.2915656E-3,-4.3482115E-3,1.5231012E-2,2.5456045E-2,1.5809339E-3],"categories":[],"categories_nodes":[],"categories_segments":[],"categories_sizes":[],"default_left":[0,0,0,0,0,0,0,0,0,0,0,0,0],"id":34,"left_children":[1,3,5,7,9,11,-1,-1,-1,-1,-1,-1,-1],"loss_changes":[5.7466583E1,5.297616E1,1.0570011E1,1.0587635E1,4.2392326E1,7.594063E0,0E0,0E0,0E0,0E0,0E0,0E0,0E0],"parents":[2147483647,0,0,1,1,2,2,3,3,4,4,5,5],"right_children":[2,4,6,8,10,12,-1,-1,-1,-1,-1,-1,-1],"split_conditions":[1.8539141E0,4.7694614E1,3.1261716E0,2E0,1E0,1E0,6.236663E-2,-3.5515282E-2,-4.2915656E-3,-4.3482115E-3,1.5231012E-2,2.5456045E-2,1.5809339E-3],"split_indices":[3,0,3,16,12,17,0,0,0,0,0,0,0],"split_type":[0,0,0,0,0,0,0,0,0,0,0,0,0],"sum_hessian":[1.976037E3,1.7517388E3,2.2429823E2,1.6978227E2,1.5819565E3,2.086731E2,1.5625139E1,1.3485278E2,3.492949E1,1.226688E3,3.552685E2,1.66294E2,4.2379086E1],"tree_param":{"num_deleted":"0","num_feature":"19","num_nodes":"13","size_leaf_vector":"1"}},{"base_weights":[1.6204162E-2,3.887077E-1,-3.5742227E-2,1.138667E0,2.681407E-1,-2.3365135E-1,7.6836005E-2,6.606542E-2,3.551685E-3,5.5180322E-3,3.3167433E-2,-2.0090591E-2,3.8594794E-3,1.44373225E-2,-3.199871E-3],"categories":[],"categories_nodes":[],"categories_segments":[],"categories_sizes":[],"default_left":[0,0,0,0,0,0,0,0,0,0,0,0,0,0,0],"id":35,"left_children":[1,3,5,7,9,11,13,-1,-1,-1,-1,-1,-1,-1,-1],"loss_changes":[3.9200787E1,2.1820335E1,3.9623833E1,6.303524E0,1.326169E1,3.3785103E1,3.3868996E1,0E0,0E0,0E0,0E0,0E0,0E0,0E0,0E0],"parents":[2147483647,0,0,1,1,2,2,3,3,4,4,5,5,6,6],"right_children":[2,4,6,8,10,12,14,-1,-1,-1,-1,-1,-1,-1,-1],"split_conditions":[1.0018856E1,5.546198E0,6.127207E1,1.5498401E2,1E0,1.3538636E0,3.580901E0,6.606542E-2,3.551685E-3,5.5180322E-3,3.3167433E-2,-2.0090591E-2,3.8594794E-3,1.44373225E-2,-3.199871E-3],"split_indices":[7,6,0,5,13,3,4,0,0,0,0,0,0,0,0],"split_type":[0,0,0,0,0,0,0,0,0,0,0,0,0,0,0],"sum_hessian":[2.0214572E3,2.4644193E2,1.7750153E3,3.22628E1,2.1417912E2,6.4333203E2,1.1316832E3,2.716549E1,5.097309E0,1.5462117E2,5.9557964E1,4.174048E2,2.2592726E2,4.514804E2,6.8020276E2],"tree_param":{"num_deleted":"0","num_feature":"19","num_nodes":"15","size_leaf_vector":"1"}},{"base_weights":[5.226272E-3,-4.2621842E-1,5.097595E-2,-7.006318E-1,-1.3622837E-1,-3.734244E-2,2.6890603E-1,-0E0,-4.247979E-2,-3.8667854E-2,7.3766694E-3,-6.5945373E-3,1.2437131E-2,3.7897192E-3,2.3085838E-2],"categories":[],"categories_nodes":[],"categories_segments":[],"categories_sizes":[],"default_left":[0,0,0,0,0,0,0,0,0,0,0,0,0,0,0],"id":36,"left_children":[1,3,5,7,9,11,13,-1,-1,-1,-1,-1,-1,-1,-1],"loss_changes":[3.915159E1,1.4903858E1,3.4589493E1,1.0179268E1,1.7315916E1,3.461749E1,1.9188538E1,0E0,0E0,0E0,0E0,0E0,0E0,0E0,0E0],"parents":[2147483647,0,0,1,1,2,2,3,3,4,4,5,5,6,6],"right_children":[2,4,6,8,10,12,14,-1,-1,-1,-1,-1,-1,-1,-1],"split_conditions":[4.7308105E1,9.446348E0,1E0,7.004708E0,1.8830318E1,1E0,3E0,-0E0,-4.247979E-2,-3.8667854E-2,7.3766694E-3,-6.5945373E-3,1.2437131E-2,3.7897192E-3,2.3085838E-2],"split_indices":[0,2,11,6,6,13,9,0,0,0,0,0,0,0,0],"split_type":[0,0,0,0,0,0,0,0,0,0,0,0,0,0,0],"sum_hessian":[1.9822682E3,1.8863892E2,1.7936293E3,9.5654E1,9.298492E1,1.276926E3,5.167032E2,1.6979906E1,7.8674095E1,2.7963335E1,6.502158E1,9.6061145E2,3.1631464E2,2.5945328E2,2.572499E2],"tree_param":{"num_deleted":"0","num_feature":"19","num_nodes":"15","size_leaf_vector":"1"}},{"base_weights":[9.222941E-3,-6.723317E-2,2.8553185E-1,-1.2914705E-1,3.1954715E-1,5.8473575E-1,9.168265E-2,-1.2342728E-2,3.6765474E-3,-5.083448E-3,2.6593912E-2,2.077732E-2,4.3545794E-2,8.151876E-3,-4.973699E-2],"categories":[],"categories_nodes":[],"categories_segments":[],"categories_sizes":[],"default_left":[0,0,0,0,0,0,0,0,0,0,0,0,0,0,0],"id":37,"left_children":[1,3,5,7,9,11,13,-1,-1,-1,-1,-1,-1,-1,-1],"loss_changes":[4.1977455E1,3.7291172E1,2.483337E1,3.206276E1,1.9338795E1,7.504322E0,2.0575708E1,0E0,0E0,0E0,0E0,0E0,0E0,0E0,0E0],"parents":[2147483647,0,0,1,1,2,2,3,3,4,4,5,5,6,6],"right_children":[2,4,6,8,10,12,14,-1,-1,-1,-1,-1,-1,-1,-1],"split_conditions":[1E0,1.7712983E0,3.5420635E0,1E0,3.612948E0,1.3525293E1,1.5579346E1,-1.2342728E-2,3.6765474E-3,-5.083448E-3,2.6593912E-2,2.077732E-2,4.3545794E-2,8.151876E-3,-4.973699E-2],"split_indices":[12,3,4,10,4,7,7,0,0,0,0,0,0,0,0],"split_type":[0,0,0,0,0,0,0,0,0,0,0,0,0,0,0],"sum_hessian":[1.9831544E3,1.5539434E3,4.292111E2,1.3406038E3,2.1333952E2,1.6735703E2,2.6185406E2,8.481802E2,4.9242365E2,7.160415E1,1.4173538E2,1.077078E2,5.9649223E1,2.4699846E2,1.4855604E1],"tree_param":{"num_deleted":"0","num_feature":"19","num_nodes":"15","size_leaf_vector":"1"}},{"base_weights":[5.9095393E-3,-6.902883E-2,2.6902676E-1,-5.2640516E-1,-2.0252474E-2,8.963632E-1,2.0731522E-1,6.5012323E-3,-3.1825103E-2,2.9969036E-3,-1.6288117E-2,5.3956896E-2,1.9471323E-2,6.6680335E-3,3.7590366E-2],"categories":[],"categories_nodes":[],"categories_segments":[],"categories_sizes":[],"default_left":[0,0,0,0,0,0,0,0,0,0,0,0,0,0,0],"id":38,"left_children":[1,3,5,7,9,11,13,-1,-1,-1,-1,-1,-1,-1,-1],"loss_changes":[3.9098885E1,3.4338657E1,1.663079E1,1.0898148E1,3.4244434E1,2.8157005E0,1.5963013E1,0E0,0E0,0E0,0E0,0E0,0E0,0E0,0E0],"parents":[2147483647,0,0,1,1,2,2,3,3,4,4,5,5,6,6],"right_children":[2,4,6,8,10,12,14,-1,-1,-1,-1,-1,-1,-1,-1],"split_conditions":[1E0,4.7694614E1,2.8503585E0,3E0,7.3120735E1,1.3549913E2,5E0,6.5012323E-3,-3.1825103E-2,2.9969036E-3,-1.6288117E-2,5.3956896E-2,1.9471323E-2,6.6680335E-3,3.7590366E-2],"split_indices":[12,0,4,15,6,5,9,0,0,0,0,0,0,0,0],"split_type":[0,0,0,0,0,0,0,0,0,0,0,0,0,0,0],"sum_hessian":[1.9790184E3,1.5408855E3,4.3813293E2,1.468773E2,1.3940082E3,3.7277348E1,4.008556E2,2.0926659E1,1.25950645E2,1.1048773E3,2.8913095E2,2.6009363E1,1.1267985E1,3.547266E2,4.6128986E1],"tree_param":{"num_deleted":"0","num_feature":"19","num_nodes":"15","size_leaf_vector":"1"}},{"base_weights":[4.124785E-2,-8.0290765E-2,2.460919E-1,-1.4520255E-1,4.8335516E-1,2.0570928E-1,8.74369E-1,-9.677692E-3,2.7098838E-2,2.4516096E-3,3.54424E-2,5.957428E-3,2.4290906E-2,-4.232267E-3,5.101764E-2],"categories":[],"categories_nodes":[],"categories_segments":[],"categories_sizes":[],"default_left":[0,0,0,0,0,0,0,0,0,0,0,0,0,0,0],"id":39,"left_children":[1,3,5,7,9,11,13,-1,-1,-1,-1,-1,-1,-1,-1],"loss_changes":[4.870414E1,4.4980522E1,1.810431E1,3.6737686E1,1.2304899E1,1.6499716E1,6.296791E0,0E0,0E0,0E0,0E0,0E0,0E0,0E0,0E0],"parents":[2147483647,0,0,1,1,2,2,3,3,4,4,5,5,6,6],"right_children":[2,4,6,8,10,12,14,-1,-1,-1,-1,-1,-1,-1,-1],"split_conditions":[1E0,8.6470505E1,3E0,3E0,1E0,1E0,1.0836782E1,-9.677692E-3,2.7098838E-2,2.4516096E-3,3.54424E-2,5.957428E-3,2.4290906E-2,-4.232267E-3,5.101764E-2],"split_indices":[10,0,16,16,16,12,6,0,0,0,0,0,0,0,0],"split_type":[0,0,0,0,0,0,0,0,0,0,0,0,0,0,0],"sum_hessian":[1.9529111E3,1.2259507E3,7.2696045E2,1.1005033E3,1.25447495E2,6.850773E2,4.188317E1,1.0293025E3,7.1200745E1,4.364748E1,8.180001E1,5.252552E2,1.5982208E2,5.526044E0,3.6357124E1],"tree_param":{"num_deleted":"0","num_feature":"19","num_nodes":"15","size_leaf_vector":"1"}},{"base_weights":[-1.7614089E-3,-1.2061181E-1,1.9515915E-1,-2.4419023E-1,2.0948286E-1,-3.6357817E-1,2.5606158E-1,-5.1670354E-2,-9.551546E-3,1.2378686E-2,-6.1262943E-2,-3.364433E-2,1.4872843E-2,4.607631E-2,1.09608425E-2],"categories":[],"categories_nodes":[],"categories_segments":[],"categories_sizes":[],"default_left":[0,0,0,0,0,0,0,0,0,0,0,0,0,0,0],"id":40,"left_children":[1,3,5,7,9,11,13,-1,-1,-1,-1,-1,-1,-1,-1],"loss_changes":[4.6261433E1,5.0384384E1,2.5438549E1,3.7263615E1,1.8746971E1,1.5378565E1,1.6052643E1,0E0,0E0,0E0,0E0,0E0,0E0,0E0,0E0],"parents":[2147483647,0,0,1,1,2,2,3,3,4,4,5,5,6,6],"right_children":[2,4,6,8,10,12,14,-1,-1,-1,-1,-1,-1,-1,-1],"split_conditions":[1E0,4E0,4.7308105E1,4.4398956E1,4.9153934E0,1.4300257E0,2.6780124E0,-5.1670354E-2,-9.551546E-3,1.2378686E-2,-6.1262943E-2,-3.364433E-2,1.4872843E-2,4.607631E-2,1.09608425E-2],"split_indices":[10,9,0,0,8,3,4,0,0,0,0,0,0,0,0],"split_type":[0,0,0,0,0,0,0,0,0,0,0,0,0,0,0],"sum_hessian":[1.973949E3,1.2316699E3,7.42279E2,8.966733E2,3.3499667E2,7.2062164E1,6.7021686E2,5.47216E1,8.4195166E2,3.2760983E2,7.3868265E0,4.9176235E1,2.288593E1,3.3129196E1,6.3708765E2],"tree_param":{"num_deleted":"0","num_feature":"19","num_nodes":"15","size_leaf_vector":"1"}},{"base_weights":[2.3507083E-2,-4.9369168E-2,3.6446938E-1,-1.7111292E-1,1.4858596E-1,-5.954065E-1,4.2943037E-1,-1.4635063E-2,7.447409E-3,3.288199E-2,4.74734E-3,-7.203346E-2,3.6739957E-2,2.8072853E-2,2.7175872E-3],"categories":[],"categories_nodes":[],"categories_segments":[],"categories_sizes":[],"default_left":[0,0,0,0,0,0,0,0,0,0,0,0,0,0,0],"id":41,"left_children":[1,3,5,7,9,11,13,-1,-1,-1,-1,-1,-1,-1,-1],"loss_changes":[4.967876E1,3.9717525E1,2.232066E1,3.979045E1,1.6963453E1,2.7348278E1,1.6270596E1,0E0,0E0,0E0,0E0,0E0,0E0,0E0,0E0],"parents":[2147483647,0,0,1,1,2,2,3,3,4,4,5,5,6,6],"right_children":[2,4,6,8,10,12,14,-1,-1,-1,-1,-1,-1,-1,-1],"split_conditions":[1E0,1E0,1E0,4E0,2.9463763E0,1.1251193E1,4.1206927E0,-1.4635063E-2,7.447409E-3,3.288199E-2,4.74734E-3,-7.203346E-2,3.6739957E-2,2.8072853E-2,2.7175872E-3],"split_indices":[18,10,9,9,4,2,4,0,0,0,0,0,0,0,0],"split_type":[0,0,0,0,0,0,0,0,0,0,0,0,0,0,0],"sum_hessian":[1.9954474E3,1.6448678E3,3.5057956E2,1.01892847E3,6.259394E2,2.1348099E1,3.2923145E2,7.387316E2,2.801968E2,5.7880344E1,5.68059E2,1.3023249E1,8.324849E0,2.4276636E2,8.6465096E1],"tree_param":{"num_deleted":"0","num_feature":"19","num_nodes":"15","size_leaf_vector":"1"}},{"base_weights":[3.4129806E-3,-8.928721E-2,2.8422004E-1,-1.8825682E-1,1.6773356E-1,8.5038286E-1,2.0884456E-1,-1.6865727E-2,5.9828213E-3,2.0079114E-2,-1.195819E-4,-1.5095818E-2,4.8702724E-2,-9.874424E-3,1.6463058E-2],"categories":[],"categories_nodes":[],"categories_segments":[],"categories_sizes":[],"default_left":[0,0,0,0,0,0,0,0,0,0,0,0,0,0,0],"id":42,"left_children":[1,3,5,7,9,11,13,-1,-1,-1,-1,-1,-1,-1,-1],"loss_changes":[5.1200794E1,3.7644875E1,2.046347E1,4.910304E1,1.6408535E1,8.591415E0,2.1298306E1,0E0,0E0,0E0,0E0,0E0,0E0,0E0,0E0],"parents":[2147483647,0,0,1,1,2,2,3,3,4,4,5,5,6,6],"right_children":[2,4,6,8,10,12,14,-1,-1,-1,-1,-1,-1,-1,-1],"split_conditions":[1E0,7.561388E1,2.9463763E0,1.3538636E0,3.6071084E0,4.8709183E1,2E0,-1.6865727E-2,5.9828213E-3,2.0079114E-2,-1.195819E-4,-1.5095818E-2,4.8702724E-2,-9.874424E-3,1.6463058E-2],"split_indices":[13,0,4,3,4,0,9,0,0,0,0,0,0,0,0],"split_type":[0,0,0,0,0,0,0,0,0,0,0,0,0,0,0],"sum_hessian":[1.9632147E3,1.4764689E3,4.867458E2,1.0665634E3,4.0990546E2,5.5220695E1,4.315251E2,7.187873E2,3.4777615E2,1.7201126E2,2.378942E2,5.0642715E0,5.0156425E1,9.823866E1,3.3328644E2],"tree_param":{"num_deleted":"0","num_feature":"19","num_nodes":"15","size_leaf_vector":"1"}},{"base_weights":[-3.762865E-4,-4.6368182E-1,4.7534686E-2,-7.153392E-1,-1.42025985E-2,6.621543E-3,4.3182346E-1,-6.747843E-3,-4.365528E-2,-3.0922128E-2,1.8759087E-2,3.0604925E-3,-1.6285522E-2,2.3804285E-2,-2.465695E-2],"categories":[],"categories_nodes":[],"categories_segments":[],"categories_sizes":[],"default_left":[0,0,0,0,0,0,0,0,0,0,0,0,0,0,0],"id":43,"left_children":[1,3,5,7,9,11,13,-1,-1,-1,-1,-1,-1,-1,-1],"loss_changes":[4.3576546E1,2.072538E1,2.7894888E1,1.0507572E1,1.6304966E1,2.9175188E1,7.3411655E0,0E0,0E0,0E0,0E0,0E0,0E0,0E0,0E0],"parents":[2147483647,0,0,1,1,2,2,3,3,4,4,5,5,6,6],"right_children":[2,4,6,8,10,12,14,-1,-1,-1,-1,-1,-1,-1,-1],"split_conditions":[4.7694614E1,5.472066E1,1.919153E0,7.004708E0,4.1083584E1,1.0298107E2,2.0877985E2,-6.747843E-3,-4.365528E-2,-3.0922128E-2,1.8759087E-2,3.0604925E-3,-1.6285522E-2,2.3804285E-2,-2.465695E-2],"split_indices":[0,6,3,6,0,6,6,0,0,0,0,0,0,0,0],"split_type":[0,0,0,0,0,0,0,0,0,0,0,0,0,0,0],"sum_hessian":[1.9582717E3,1.82504E2,1.7757677E3,1.16286835E2,6.6217155E1,1.6065167E3,1.6925107E2,2.5584599E1,9.070224E1,2.5704218E1,4.0512936E1,1.3811722E3,2.2534445E2,1.6231963E2,6.9314303E0],"tree_param":{"num_deleted":"0","num_feature":"19","num_nodes":"15","size_leaf_vector":"1"}},{"base_weights":[-5.342093E-3,-4.364524E-2,5.738419E-1,3.8772923E-1,-8.9660555E-2,7.132796E-1,-1.3766652E-1,-3.9387327E-2,2.4085248E-2,-8.675606E-3,7.793271E-3,1.4436366E-2,5.108398E-2,-2.7243217E-2,2.7978232E-2],"categories":[],"categories_nodes":[],"categories_segments":[],"categories_sizes":[],"default_left":[0,0,0,0,0,0,0,0,0,0,0,0,0,0,0],"id":44,"left_children":[1,3,5,7,9,11,13,-1,-1,-1,-1,-1,-1,-1,-1],"loss_changes":[4.3422707E1,3.6508957E1,1.2249302E1,2.0118576E1,3.426704E1,1.2764416E1,6.4273663E0,0E0,0E0,0E0,0E0,0E0,0E0,0E0,0E0],"parents":[2147483647,0,0,1,1,2,2,3,3,4,4,5,5,6,6],"right_children":[2,4,6,8,10,12,14,-1,-1,-1,-1,-1,-1,-1,-1],"split_conditions":[3E0,2.9583051E0,1.29393015E1,5.6069803E0,7.6562035E1,7.934332E0,1.6971481E1,-3.9387327E-2,2.4085248E-2,-8.675606E-3,7.793271E-3,1.4436366E-2,5.108398E-2,-2.7243217E-2,2.7978232E-2],"split_indices":[16,4,2,2,0,2,2,0,0,0,0,0,0,0,0],"split_type":[0,0,0,0,0,0,0,0,0,0,0,0,0,0,0],"sum_hessian":[1.9565344E3,1.8366321E3,1.1990227E2,1.757487E2,1.6608834E3,1.0036925E2,1.953302E1,1.2111887E1,1.6363681E2,1.2386942E3,4.221892E2,4.359024E1,5.677901E1,1.2628771E1,6.9042497E0],"tree_param":{"num_deleted":"0","num_feature":"19","num_nodes":"15","size_leaf_vector":"1"}},{"base_weights":[8.638974E-3,-5.637897E-1,4.9073398E-2,-6.8978655E-1,4.7633637E-2,-1.4614855E-2,3.4968644E-1,-2.71889E-2,-8.187492E-2,-6.6398545E-3,9.207219E-3,1.9829797E-2,-5.8753956E-2],"categories":[],"categories_nodes":[],"categories_segments":[],"categories_sizes":[],"default_left":[0,0,0,0,0,0,0,0,0,0,0,0,0],"id":45,"left_children":[1,3,5,7,-1,9,11,-1,-1,-1,-1,-1,-1],"loss_changes":[4.5666336E1,2.5828152E1,3.5360043E1,1.52035675E1,0E0,3.5816345E1,2.3712708E1,0E0,0E0,0E0,0E0,0E0,0E0],"parents":[2147483647,0,0,1,1,2,2,3,3,5,5,6,6],"right_children":[2,4,6,8,-1,10,12,-1,-1,-1,-1,-1,-1],"split_conditions":[1E0,1.8081545E1,1E0,4.570977E0,4.7633637E-2,1E0,1.9196446E2,-2.71889E-2,-8.187492E-2,-6.6398545E-3,9.207219E-3,1.9829797E-2,-5.8753956E-2],"split_indices":[9,2,18,8,0,10,5,0,0,0,0,0,0],"split_type":[0,0,0,0,0,0,0,0,0,0,0,0,0],"sum_hessian":[1.9719144E3,1.2865547E2,1.8432589E3,1.1960187E2,9.053595E0,1.521918E3,3.21341E2,1.0577232E2,1.382955E1,9.5504755E2,5.6687036E2,3.1289035E2,8.450656E0],"tree_param":{"num_deleted":"0","num_feature":"19","num_nodes":"13","size_leaf_vector":"1"}},{"base_weights":[-1.7642302E-2,-1.0579456E-1,2.226916E-1,-1.8743588E-1,1.8058579E-1,4.0888664E-1,6.896901E-2,-1.1355033E-2,2.297462E-2,3.6302235E-2,5.3881207E-3,3.0963898E-2,5.688122E-3,1.9791075E-4,3.7414607E-2],"categories":[],"categories_nodes":[],"categories_segments":[],"categories_sizes":[],"default_left":[0,0,0,0,0,0,0,0,0,0,0,0,0,0,0],"id":46,"left_children":[1,3,5,7,9,11,13,-1,-1,-1,-1,-1,-1,-1,-1],"loss_changes":[4.1625317E1,3.3672626E1,1.4997915E1,2.8872932E1,1.2490341E1,1.458593E1,1.2765126E1,0E0,0E0,0E0,0E0,0E0,0E0,0E0,0E0],"parents":[2147483647,0,0,1,1,2,2,3,3,4,4,5,5,6,6],"right_children":[2,4,6,8,10,12,14,-1,-1,-1,-1,-1,-1,-1,-1],"split_conditions":[7.634847E1,1E0,2.2852612E1,3E0,2.9583051E0,3.8106549E0,2.0788891E0,-1.1355033E-2,2.297462E-2,3.6302235E-2,5.3881207E-3,3.0963898E-2,5.688122E-3,1.9791075E-4,3.7414607E-2],"split_indices":[0,12,6,16,4,4,3,0,0,0,0,0,0,0,0],"split_type":[0,0,0,0,0,0,0,0,0,0,0,0,0,0,0],"sum_hessian":[1.9621421E3,1.4365021E3,5.2563995E2,1.1185059E3,3.1799628E2,2.3629248E2,2.8934747E2,1.0549521E3,6.355373E1,3.5708168E1,2.822881E2,1.3678986E2,9.950262E1,2.655869E2,2.3760557E1],"tree_param":{"num_deleted":"0","num_feature":"19","num_nodes":"15","size_leaf_vector":"1"}},{"base_weights":[-3.09942E-3,-1.0223161E-1,1.6784212E-1,-1.9769682E-1,1.6517857E-1,1.3141109E-1,5.6264997E-2,-1.09961415E-2,4.519563E-2,4.2579025E-3,2.8736113E-2,8.390997E-3,-3.1814143E-2],"categories":[],"categories_nodes":[],"categories_segments":[],"categories_sizes":[],"default_left":[0,0,0,0,0,0,0,0,0,0,0,0,0],"id":47,"left_children":[1,3,5,7,9,11,-1,-1,-1,-1,-1,-1,-1],"loss_changes":[3.356981E1,3.207641E1,2.5008461E1,2.288742E1,1.0693788E1,1.9736982E1,0E0,0E0,0E0,0E0,0E0,0E0,0E0],"parents":[2147483647,0,0,1,1,2,2,3,3,4,4,5,5],"right_children":[2,4,6,8,10,12,-1,-1,-1,-1,-1,-1,-1],"split_conditions":[1E0,7.676004E1,2.455727E0,4E0,8E0,2.1781863E2,5.6264997E-2,-1.09961415E-2,4.519563E-2,4.2579025E-3,2.8736113E-2,8.390997E-3,-3.1814143E-2],"split_indices":[10,0,3,16,15,6,0,0,0,0,0,0,0],"split_type":[0,0,0,0,0,0,0,0,0,0,0,0,0],"sum_hessian":[1.978378E3,1.2529543E3,7.254237E2,9.2389105E2,3.2906335E2,7.005772E2,2.4846468E1,9.068851E2,1.7005945E1,2.769971E2,5.206624E1,6.700993E2,3.0477943E1],"tree_param":{"num_deleted":"0","num_feature":"19","num_nodes":"13","size_leaf_vector":"1"}},{"base_weights":[-9.322947E-3,-9.236075E-2,1.9313736E-1,-1.8015537E-1,1.7189147E-1,4.4460762E-1,-4.1704133E-2,-1.1985495E-2,1.4192619E-3,3.6406517E-2,4.4766804E-3,3.3574147E-4,2.9155085E-2,-8.860092E-3,2.0903394E-2],"categories":[],"categories_nodes":[],"categories_segments":[],"categories_sizes":[],"default_left":[0,0,0,0,0,0,0,0,0,0,0,0,0,0,0],"id":48,"left_children":[1,3,5,7,9,11,13,-1,-1,-1,-1,-1,-1,-1,-1],"loss_changes":[3.3167187E1,3.2520195E1,3.3945553E1,1.3092392E1,1.5833342E1,1.6755379E1,1.8639385E1,0E0,0E0,0E0,0E0,0E0,0E0,0E0,0E0],"parents":[2147483647,0,0,1,1,2,2,3,3,4,4,5,5,6,6],"right_children":[2,4,6,8,10,12,14,-1,-1,-1,-1,-1,-1,-1,-1],"split_conditions":[1E0,1E0,2.6284208E1,1E0,9.853063E0,2E0,1E0,-1.1985495E-2,1.4192619E-3,3.6406517E-2,4.4766804E-3,3.3574147E-4,2.9155085E-2,-8.860092E-3,2.0903394E-2],"split_indices":[11,13,6,12,7,9,12,0,0,0,0,0,0,0,0],"split_type":[0,0,0,0,0,0,0,0,0,0,0,0,0,0,0],"sum_hessian":[1.9703525E3,1.3981995E3,5.72153E2,1.0501542E3,3.480453E2,2.7585312E2,2.9629987E2,8.170721E2,2.3308214E2,4.321288E1,3.048324E2,6.68333E1,2.0901982E2,2.2973492E2,6.656494E1],"tree_param":{"num_deleted":"0","num_feature":"19","num_nodes":"15","size_leaf_vector":"1"}},{"base_weights":[-3.7851396E-3,-2.7469656E-1,8.864236E-2,-3.6978784E-1,5.969481E-2,6.3750874E-3,3.3201796E-1,-4.5235556E-2,-1.2527687E-2,4.140407E-2,-5.0145853E-3,-4.729006E-4,6.114016E-2,-3.6593318E-2,1.858864E-2],"categories":[],"categories_nodes":[],"categories_segments":[],"categories_sizes":[],"default_left":[0,0,0,0,0,0,0,0,0,0,0,0,0,0,0],"id":49,"left_children":[1,3,5,7,9,11,13,-1,-1,-1,-1,-1,-1,-1,-1],"loss_changes":[4.913715E1,1.5939968E1,2.9242813E1,2.4366383E1,1.3916875E1,2.1224058E1,1.59834175E1,0E0,0E0,0E0,0E0,0E0,0E0,0E0,0E0],"parents":[2147483647,0,0,1,1,2,2,3,3,4,4,5,5,6,6],"right_children":[2,4,6,8,10,12,14,-1,-1,-1,-1,-1,-1,-1,-1],"split_conditions":[2E0,1E0,1E0,3.600695E0,1.0203118E1,3.1261716E0,5.831395E-1,-4.5235556E-2,-1.2527687E-2,4.140407E-2,-5.0145853E-3,-4.729006E-4,6.114016E-2,-3.6593318E-2,1.858864E-2],"split_indices":[9,12,13,8,7,3,3,0,0,0,0,0,0,0,0],"split_type":[0,0,0,0,0,0,0,0,0,0,0,0,0,0,0],"sum_hessian":[1.9586707E3,4.9777667E2,1.460894E3,3.876737E2,1.1010298E2,1.0932854E3,3.6760867E2,6.87078E1,3.189659E2,1.80023E1,9.210068E1,1.080626E3,1.2659362E1,1.22105665E1,3.553981E2],"tree_param":{"num_deleted":"0","num_feature":"19","num_nodes":"15","size_leaf_vector":"1"}},{"base_weights":[1.4980248E-2,-4.9204204E-2,3.143376E-1,-1.6720259E-1,1.4078405E-1,-7.5454813E-1,3.8064718E-1,-1.4318399E-2,7.23578E-3,-6.0108625E-3,1.2078882E-2,-6.5687284E-2,2.8582934E-2,2.6004804E-2,-4.6848078E-4],"categories":[],"categories_nodes":[],"categories_segments":[],"categories_sizes":[],"default_left":[0,0,0,0,0,0,0,0,0,0,0,0,0,0,0],"id":50,"left_children":[1,3,5,7,9,11,13,-1,-1,-1,-1,-1,-1,-1,-1],"loss_changes":[3.782462E1,3.6353783E1,2.502909E1,3.7257046E1,1.6395826E1,1.6565418E1,1.7917233E1,0E0,0E0,0E0,0E0,0E0,0E0,0E0,0E0],"parents":[2147483647,0,0,1,1,2,2,3,3,4,4,5,5,6,6],"right_children":[2,4,6,8,10,12,14,-1,-1,-1,-1,-1,-1,-1,-1],"split_conditions":[1E0,1E0,1E0,4E0,2E0,1E0,4.1206927E0,-1.4318399E-2,7.23578E-3,-6.0108625E-3,1.2078882E-2,-6.5687284E-2,2.8582934E-2,2.6004804E-2,-4.6848078E-4],"split_indices":[18,10,9,9,9,13,4,0,0,0,0,0,0,0,0],"split_type":[0,0,0,0,0,0,0,0,0,0,0,0,0,0,0],"sum_hessian":[1.9645002E3,1.6184186E3,3.460816E2,9.9879236E2,6.196262E2,1.921798E1,3.2686365E2,7.2301483E2,2.757775E2,1.7226672E2,4.473595E2,1.3581017E1,5.636962E0,2.4059573E2,8.62679E1],"tree_param":{"num_deleted":"0","num_feature":"19","num_nodes":"15","size_leaf_vector":"1"}},{"base_weights":[-2.23125E-2,-9.9029735E-2,2.2284107E-1,-1.8633917E-1,1.0477403E-1,9.439987E-2,5.456638E-1,-1.2527975E-2,5.566979E-3,1.0461036E-2,-1.3100216E-2,8.002289E-3,-2.0585658E-2,1.1360493E-2,4.237472E-2],"categories":[],"categories_nodes":[],"categories_segments":[],"categories_sizes":[],"default_left":[0,0,0,0,0,0,0,0,0,0,0,0,0,0,0],"id":51,"left_children":[1,3,5,7,9,11,13,-1,-1,-1,-1,-1,-1,-1,-1],"loss_changes":[3.612207E1,2.6076365E1,1.8835186E1,1.9657501E1,1.6913647E1,1.1018957E1,1.2072983E1,0E0,0E0,0E0,0E0,0E0,0E0,0E0,0E0],"parents":[2147483647,0,0,1,1,2,2,3,3,4,4,5,5,6,6],"right_children":[2,4,6,8,10,12,14,-1,-1,-1,-1,-1,-1,-1,-1],"split_conditions":[1E0,1E0,4E0,1E0,7.170922E1,1.2256003E2,4.06593E0,-1.2527975E-2,5.566979E-3,1.0461036E-2,-1.3100216E-2,8.002289E-3,-2.0585658E-2,1.1360493E-2,4.237472E-2],"split_indices":[13,11,9,18,6,6,8,0,0,0,0,0,0,0,0],"split_type":[0,0,0,0,0,0,0,0,0,0,0,0,0,0,0],"sum_hessian":[1.9180186E3,1.4618545E3,4.561641E2,1.0238548E3,4.3799973E2,3.279366E2,1.2822746E2,8.426395E2,1.8121521E2,3.4163113E2,9.6368576E1,2.913677E2,3.6568905E1,6.383607E1,6.439139E1],"tree_param":{"num_deleted":"0","num_feature":"19","num_nodes":"15","size_leaf_vector":"1"}},{"base_weights":[-3.259432E-3,-8.249076E-2,2.1283416E-1,-1.2989268E-1,2.565583E-1,-3.003746E-2,3.814375E-1,-2.5615731E-2,-4.513964E-3,1.9565016E-2,-1.2791214E-2,4.548779E-3,-4.4542216E-2,2.8163153E-3,2.6260868E-2],"categories":[],"categories_nodes":[],"categories_segments":[],"categories_sizes":[],"default_left":[0,0,0,0,0,0,0,0,0,0,0,0,0,0,0],"id":52,"left_children":[1,3,5,7,9,11,13,-1,-1,-1,-1,-1,-1,-1,-1],"loss_changes":[3.3421043E1,2.3006218E1,2.1491833E1,1.8884165E1,1.2283299E1,2.2668766E1,1.4359531E1,0E0,0E0,0E0,0E0,0E0,0E0,0E0,0E0],"parents":[2147483647,0,0,1,1,2,2,3,3,4,4,5,5,6,6],"right_children":[2,4,6,8,10,12,14,-1,-1,-1,-1,-1,-1,-1,-1],"split_conditions":[7.616879E1,5E0,1E0,4.4398956E1,1E0,1.4828152E1,9.7025865E-1,-2.5615731E-2,-4.513964E-3,1.9565016E-2,-1.2791214E-2,4.548779E-3,-4.4542216E-2,2.8163153E-3,2.6260868E-2],"split_indices":[0,9,16,0,17,7,3,0,0,0,0,0,0,0,0],"split_type":[0,0,0,0,0,0,0,0,0,0,0,0,0,0,0],"sum_hessian":[1.9497292E3,1.4276628E3,5.220664E2,1.2536168E3,1.7404591E2,2.141807E2,3.0788574E2,1.1575089E2,1.137866E3,1.3824188E2,3.580404E1,1.8885638E2,2.5324312E1,9.5262886E1,2.1262285E2],"tree_param":{"num_deleted":"0","num_feature":"19","num_nodes":"15","size_leaf_vector":"1"}},{"base_weights":[1.5455069E-3,-1.02178216E-1,2.468119E-1,-1.5083791E-1,2.3877326E-1,2.8201854E-1,-5.547318E-1,4.290684E-3,-1.4507492E-2,-8.191629E-3,2.0378098E-2,3.6145372E-3,1.9629395E-2,-6.743708E-2,3.8220778E-3],"categories":[],"categories_nodes":[],"categories_segments":[],"categories_sizes":[],"default_left":[0,0,0,0,0,0,0,0,0,0,0,0,0,0,0],"id":53,"left_children":[1,3,5,7,9,11,13,-1,-1,-1,-1,-1,-1,-1,-1],"loss_changes":[5.004247E1,2.2969677E1,1.6708939E1,3.9961914E1,1.1873859E1,1.2926346E1,1.2805723E1,0E0,0E0,0E0,0E0,0E0,0E0,0E0,0E0],"parents":[2147483647,0,0,1,1,2,2,3,3,4,4,5,5,6,6],"right_children":[2,4,6,8,10,12,14,-1,-1,-1,-1,-1,-1,-1,-1],"split_conditions":[1E0,1.8008555E0,1.870199E2,3.534952E0,3.5420635E0,9.7363377E-1,9.406605E0,4.290684E-3,-1.4507492E-2,-8.191629E-3,2.0378098E-2,3.6145372E-3,1.9629395E-2,-6.743708E-2,3.8220778E-3],"split_indices":[11,3,5,4,4,3,2,0,0,0,0,0,0,0,0],"split_type":[0,0,0,0,0,0,0,0,0,0,0,0,0,0,0],"sum_hessian":[1.963527E3,1.3802736E3,5.832535E2,1.2088756E3,1.7139786E2,5.597637E2,2.3489815E1,4.4789197E2,7.609837E2,5.046856E1,1.20929306E2,1.9440381E2,3.6535986E2,9.717903E0,1.3771912E1],"tree_param":{"num_deleted":"0","num_feature":"19","num_nodes":"15","size_leaf_vector":"1"}},{"base_weights":[-1.1022247E-2,-7.9957105E-2,2.5084502E-1,-1.9230627E-1,9.5809095E-2,3.1518674E-1,-6.233218E-1,-7.953691E-3,-4.0859506E-2,-3.0899232E-3,1.3700247E-2,9.538927E-3,2.8391166E-2,-5.0083425E-2,2.5325803E-2],"categories":[],"categories_nodes":[],"categories_segments":[],"categories_sizes":[],"default_left":[0,0,0,0,0,0,0,0,0,0,0,0,0,0,0],"id":54,"left_children":[1,3,5,7,9,11,13,-1,-1,-1,-1,-1,-1,-1,-1],"loss_changes":[3.497524E1,3.0341633E1,2.2967836E1,1.9166477E1,1.6871508E1,1.1613541E1,1.2810084E1,0E0,0E0,0E0,0E0,0E0,0E0,0E0,0E0],"parents":[2147483647,0,0,1,1,2,2,3,3,4,4,5,5,6,6],"right_children":[2,4,6,8,10,12,14,-1,-1,-1,-1,-1,-1,-1,-1],"split_conditions":[2E0,7.1E1,1.7317206E2,4.7955155E0,1E0,1E0,7.778703E1,-7.953691E-3,-4.0859506E-2,-3.0899232E-3,1.3700247E-2,9.538927E-3,2.8391166E-2,-5.0083425E-2,2.5325803E-2],"split_indices":[16,0,5,8,16,11,0,0,0,0,0,0,0,0,0],"split_type":[0,0,0,0,0,0,0,0,0,0,0,0,0,0,0],"sum_hessian":[1.9352749E3,1.533116E3,4.0215897E2,9.3554596E2,5.9757E2,3.7558795E2,2.6571016E1,8.902431E2,4.5302853E1,3.173258E2,2.802442E2,2.536897E2,1.2189825E2,2.0099129E1,6.471888E0],"tree_param":{"num_deleted":"0","num_feature":"19","num_nodes":"15","size_leaf_vector":"1"}},{"base_weights":[-5.9184874E-3,-9.9943906E-2,1.5145509E-1,-1.8605453E-1,1.3364021E-1,1.2608075E-1,4.6045996E-2,1.546332E-4,-1.7639158E-2,9.176905E-3,-2.5779068E-2,4.489754E-3,3.5387926E-2],"categories":[],"categories_nodes":[],"categories_segments":[],"categories_sizes":[],"default_left":[0,0,0,0,0,0,0,0,0,0,0,0,0],"id":55,"left_children":[1,3,5,7,9,11,-1,-1,-1,-1,-1,-1,-1],"loss_changes":[2.859975E1,2.4390018E1,1.3830357E1,2.7957747E1,1.0688986E1,1.4629705E1,0E0,0E0,0E0,0E0,0E0,0E0,0E0],"parents":[2147483647,0,0,1,1,2,2,3,3,4,4,5,5],"right_children":[2,4,6,8,10,12,-1,-1,-1,-1,-1,-1,-1],"split_conditions":[1E0,7.634847E1,2.455727E0,5E0,1.5215493E1,3E0,4.6045996E-2,1.546332E-4,-1.7639158E-2,9.176905E-3,-2.5779068E-2,4.489754E-3,3.5387926E-2],"split_indices":[10,0,3,15,2,16,0,0,0,0,0,0,0],"split_type":[0,0,0,0,0,0,0,0,0,0,0,0,0],"sum_hessian":[1.9301058E3,1.2089698E3,7.21136E2,8.8386646E2,3.2510342E2,6.999304E2,2.1205585E1,4.1450223E2,4.6936426E2,3.0304218E2,2.2061247E1,6.606235E2,3.9306927E1],"tree_param":{"num_deleted":"0","num_feature":"19","num_nodes":"13","size_leaf_vector":"1"}},{"base_weights":[-1.862284E-2,-1.6544116E-1,8.308734E-2,-2.4692695E-1,2.0631123E-1,1.6384928E-2,3.8082767E-1,-1.8526776E-2,3.6349376E-3,2.4034278E-3,5.0317593E-2,-1.0528365E-2,5.7574078E-3,2.2053225E-2,-2.4864346E-2],"categories":[],"categories_nodes":[],"categories_segments":[],"categories_sizes":[],"default_left":[0,0,0,0,0,0,0,0,0,0,0,0,0,0,0],"id":56,"left_children":[1,3,5,7,9,11,13,-1,-1,-1,-1,-1,-1,-1,-1],"loss_changes":[2.9033667E1,2.4187458E1,2.2750885E1,2.5894287E1,1.8010849E1,2.1091034E1,1.1419556E1,0E0,0E0,0E0,0E0,0E0,0E0,0E0,0E0],"parents":[2147483647,0,0,1,1,2,2,3,3,4,4,5,5,6,6],"right_children":[2,4,6,8,10,12,14,-1,-1,-1,-1,-1,-1,-1,-1],"split_conditions":[6.3550644E1,4.3784647E0,1.6313794E0,4E0,1.7380763E0,7.390889E0,1.5301966E1,-1.8526776E-2,3.6349376E-3,2.4034278E-3,5.0317593E-2,-1.0528365E-2,5.7574078E-3,2.2053225E-2,-2.4864346E-2],"split_indices":[0,4,3,9,3,2,7,0,0,0,0,0,0,0,0],"split_type":[0,0,0,0,0,0,0,0,0,0,0,0,0,0,0],"sum_hessian":[1.9408407E3,7.943059E2,1.1465348E3,6.521347E2,1.4217117E2,9.3825665E2,2.082781E2,4.7032166E2,1.8181306E2,1.20126144E2,2.204503E1,2.836757E2,6.54581E2,1.9571306E2,1.2565046E1],"tree_param":{"num_deleted":"0","num_feature":"19","num_nodes":"15","size_leaf_vector":"1"}},{"base_weights":[-1.1149054E-2,-7.672243E-2,2.3429984E-1,-1.6583791E-1,1.7220059E-1,4.3894216E-1,5.9182163E-2,-9.643014E-3,2.9747436E-2,1.0416237E-2,-5.6658655E-2,2.8925601E-2,-6.4514154E-3,-6.2883245E-3,2.689105E-2],"categories":[],"categories_nodes":[],"categories_segments":[],"categories_sizes":[],"default_left":[0,0,0,0,0,0,0,0,0,0,0,0,0,0,0],"id":57,"left_children":[1,3,5,7,9,11,13,-1,-1,-1,-1,-1,-1,-1,-1],"loss_changes":[3.1020239E1,3.3802155E1,1.4469599E1,2.3192968E1,1.9201576E1,1.49674835E1,1.9698523E1,0E0,0E0,0E0,0E0,0E0,0E0,0E0,0E0],"parents":[2147483647,0,0,1,1,2,2,3,3,4,4,5,5,6,6],"right_children":[2,4,6,8,10,12,14,-1,-1,-1,-1,-1,-1,-1,-1],"split_conditions":[2E0,4E0,8.295152E0,2.455727E0,4.8975177E0,4.207407E0,3E0,-9.643014E-3,2.9747436E-2,1.0416237E-2,-5.6658655E-2,2.8925601E-2,-6.4514154E-3,-6.2883245E-3,2.689105E-2],"split_indices":[16,9,2,3,8,4,16,0,0,0,0,0,0,0,0],"split_type":[0,0,0,0,0,0,0,0,0,0,0,0,0,0,0],"sum_hessian":[1.9251359E3,1.5203914E3,4.0474454E2,1.1202423E3,4.0014902E2,1.8533331E2,2.1941121E2,1.0830255E3,3.7216766E1,3.9067496E2,9.474086E0,1.4889334E2,3.6439976E1,1.58906E2,6.050521E1],"tree_param":{"num_deleted":"0","num_feature":"19","num_nodes":"15","size_leaf_vector":"1"}},{"base_weights":[2.268822E-2,-4.0235102E-2,2.4899441E-1,-3.836923E-1,1.4960097E-2,-3.9435717E-1,2.959236E-1,-3.3077806E-2,2.3821483E-3,2.0867772E-2,-2.1495447E-3,-7.712012E-2,1.5256722E-2,1.689299E-2,-1.3634543E-2],"categories":[],"categories_nodes":[],"categories_segments":[],"categories_sizes":[],"default_left":[0,0,0,0,0,0,0,0,0,0,0,0,0,0,0],"id":58,"left_children":[1,3,5,7,9,11,13,-1,-1,-1,-1,-1,-1,-1,-1],"loss_changes":[2.7436382E1,2.8604977E1,1.2820877E1,2.5144934E1,3.0359114E1,2.4114838E1,9.484474E0,0E0,0E0,0E0,0E0,0E0,0E0,0E0,0E0],"parents":[2147483647,0,0,1,1,2,2,3,3,4,4,5,5,6,6],"right_children":[2,4,6,8,10,12,14,-1,-1,-1,-1,-1,-1,-1,-1],"split_conditions":[1E0,3.4834328E0,1E0,7.15569E1,1.0018856E1,3.1430834E1,1.5414225E1,-3.3077806E-2,2.3821483E-3,2.0867772E-2,-2.1495447E-3,-7.712012E-2,1.5256722E-2,1.689299E-2,-1.3634543E-2],"split_indices":[12,8,9,0,7,6,7,0,0,0,0,0,0,0,0],"split_type":[0,0,0,0,0,0,0,0,0,0,0,0,0,0,0],"sum_hessian":[1.9226993E3,1.5050258E3,4.1767358E2,2.0739235E2,1.2976334E3,2.7495964E1,3.901776E2,1.257902E2,8.160214E1,1.6239955E2,1.1352339E3,9.779958E0,1.7716007E1,3.641086E2,2.606898E1],"tree_param":{"num_deleted":"0","num_feature":"19","num_nodes":"15","size_leaf_vector":"1"}},{"base_weights":[-1.4082008E-2,-1.0263354E-1,2.0085007E-1,1.0791419E-1,-2.16094E-1,9.0534344E-2,5.3958666E-1,7.5925194E-4,2.0985043E-2,-3.6557235E-2,-7.915681E-3,7.6961103E-3,-2.6074717E-2,2.996539E-2,-2.6074553E-2],"categories":[],"categories_nodes":[],"categories_segments":[],"categories_sizes":[],"default_left":[0,0,0,0,0,0,0,0,0,0,0,0,0,0,0],"id":59,"left_children":[1,3,5,7,9,11,13,-1,-1,-1,-1,-1,-1,-1,-1],"loss_changes":[3.6699677E1,3.2681786E1,2.0882744E1,1.3798284E1,2.6181107E1,1.6623215E1,9.199783E0,0E0,0E0,0E0,0E0,0E0,0E0,0E0,0E0],"parents":[2147483647,0,0,1,1,2,2,3,3,4,4,5,5,6,6],"right_children":[2,4,6,8,10,12,14,-1,-1,-1,-1,-1,-1,-1,-1],"split_conditions":[1E0,3.5161853E0,2E0,1E0,3.64363E0,1.5195392E1,1.772356E1,7.5925194E-4,2.0985043E-2,-3.6557235E-2,-7.915681E-3,7.6961103E-3,-2.6074717E-2,2.996539E-2,-2.6074553E-2],"split_indices":[11,4,16,12,4,7,2,0,0,0,0,0,0,0,0],"split_type":[0,0,0,0,0,0,0,0,0,0,0,0,0,0,0],"sum_hessian":[1.9256483E3,1.3646603E3,5.60988E2,4.775907E2,8.870696E2,4.2483038E2,1.3615762E2,3.6956992E2,1.08020805E2,8.75392E1,7.995304E2,3.861255E2,3.87049E1,1.2960976E2,6.547861E0],"tree_param":{"num_deleted":"0","num_feature":"19","num_nodes":"15","size_leaf_vector":"1"}},{"base_weights":[3.8946993E-3,-7.465225E-2,1.919924E-1,-6.165703E-1,-4.4729635E-2,2.5285697E-1,-6.6574615E-1,-4.152639E-2,-1.1383186E-3,-5.083076E-3,1.0726416E-2,3.1740945E-2,8.880041E-3,-5.5362977E-2,1.9200701E-2],"categories":[],"categories_nodes":[],"categories_segments":[],"categories_sizes":[],"default_left":[0,0,0,0,0,0,0,0,0,0,0,0,0,0,0],"id":60,"left_children":[1,3,5,7,9,11,13,-1,-1,-1,-1,-1,-1,-1,-1],"loss_changes":[2.8886349E1,2.2242931E1,3.0285528E1,9.012402E0,1.9327522E1,1.5246006E1,1.8541813E1,0E0,0E0,0E0,0E0,0E0,0E0,0E0,0E0],"parents":[2147483647,0,0,1,1,2,2,3,3,4,4,5,5,6,6],"right_children":[2,4,6,8,10,12,14,-1,-1,-1,-1,-1,-1,-1,-1],"split_conditions":[1E0,4.367284E1,1.5301966E1,1.4300257E0,1E0,3E0,1.6977608E1,-4.152639E-2,-1.1383186E-3,-5.083076E-3,1.0726416E-2,3.1740945E-2,8.880041E-3,-5.5362977E-2,1.9200701E-2],"split_indices":[11,0,7,3,18,15,7,0,0,0,0,0,0,0,0],"split_type":[0,0,0,0,0,0,0,0,0,0,0,0,0,0,0],"sum_hessian":[1.9513995E3,1.3768285E3,5.745711E2,7.0331375E1,1.3064971E3,5.375979E2,3.6973213E1,5.113881E1,1.9192562E1,1.0723182E3,2.3417879E2,8.6431885E1,4.5116602E2,2.6035973E1,1.093724E1],"tree_param":{"num_deleted":"0","num_feature":"19","num_nodes":"15","size_leaf_vector":"1"}},{"base_weights":[1.9044964E-2,-4.670176E-2,2.5654453E-1,-1.0270897E-1,2.2034821E-1,3.0102217E-1,-4.6723443E-1,-1.597484E-2,-1.3486686E-3,-1.0229925E-2,1.8779341E-2,1.0447395E-2,2.8092718E-2,2.8877154E-2,-4.0397674E-2],"categories":[],"categories_nodes":[],"categories_segments":[],"categories_sizes":[],"default_left":[0,0,0,0,0,0,0,0,0,0,0,0,0,0,0],"id":61,"left_children":[1,3,5,7,9,11,13,-1,-1,-1,-1,-1,-1,-1,-1],"loss_changes":[3.0389975E1,2.280503E1,1.3778742E1,2.0648075E1,1.7564293E1,9.319401E0,9.582439E0,0E0,0E0,0E0,0E0,0E0,0E0,0E0,0E0],"parents":[2147483647,0,0,1,1,2,2,3,3,4,4,5,5,6,6],"right_children":[2,4,6,8,10,12,14,-1,-1,-1,-1,-1,-1,-1,-1],"split_conditions":[1E0,1E0,1.546482E1,2E0,9.338149E-1,1.3742098E1,1.0000784E1,-1.597484E-2,-1.3486686E-3,-1.0229925E-2,1.8779341E-2,1.0447395E-2,2.8092718E-2,2.8877154E-2,-4.0397674E-2],"split_indices":[12,18,7,9,3,7,6,0,0,0,0,0,0,0,0],"split_type":[0,0,0,0,0,0,0,0,0,0,0,0,0,0,0],"sum_hessian":[1.9422317E3,1.5217511E3,4.204806E2,1.2590034E3,2.6274768E2,3.9709277E2,2.338782E1,3.243697E2,9.346337E2,7.0002716E1,1.9274498E2,2.957703E2,1.0132247E2,5.4229217E0,1.7964897E1],"tree_param":{"num_deleted":"0","num_feature":"19","num_nodes":"15","size_leaf_vector":"1"}}]},"name":"gbtree"},"learner_model_param":{"base_score":"[5E-1]","boost_from_average":"1","num_class":"0","num_feature":"19","num_target":"1"},"objective":{"name":"binary:logistic","reg_loss_param":{"scale_pos_weight":"4.13643646"}}},"version":[3,2,0]}